{"layers": {"0": {"output": {"rows": 100, "data": [0.9999999999999336, -1.0, 0.9999999999998603, 0.9999999999919504, 0.9980554489788286, 0.9999999999999349, 1.0, 0.999999999200983, 0.9999999804046039, 0.8330453356374351, -1.0, 1.0, 0.9999999996975358, -1.0, -0.9999999999984377, -0.9999999999835, 0.9999999999991722, -0.9999999999347499, 0.9999999999997847, 0.9999999999999051, 0.5931504441553244, -0.9999999999994172, -0.9999999999995189, -1.0, -0.9999999999999962, -0.9999999999941868, 0.9999999999853225, 0.9999999987058634, 0.9999985232779288, 0.9999999999498084, 0.9999999999999653, 0.9999999950650329, -1.0, 0.9999999999999805, -1.0, -0.9999999999981014, -0.9999999999999898, -0.999999999975365, -0.9999999990096312, 0.9999999999999977, 0.9999999999999994, -0.9999999999968878, 0.9999999999944783, -0.9999999999999545, -1.0, -0.9999999017160547, -0.999967135198271, 1.0, -0.9999999999993215, -0.9999999507905558, -0.9999999999910896, -1.0, -1.0, 0.9999996173908409, -0.9999999999581394, 1.0, -0.9999999999992443, -1.0, -0.9999999999997872, -0.9999999999999749, -0.9999999994893696, 0.9999999999999925, -0.9999999999999982, 0.999999999917528, 0.9999999999999997, -1.0, -0.9999999999991791, 0.9999768909088781, 0.9999999999729668, 0.9999997829572989, -0.9999999999999563, -0.9999999990907072, -0.9999999999996718, 1.0, -0.9999999992453772, -0.999999999339121, 0.9999999999974052, -0.9999999999999987, 0.9999999210798682, -0.9999999999980984, 1.0, -1.0, 1.0, 1.0, 0.99999967085634, -0.9999999999995042, 0.9999999999999917, 0.9999999985301482, -0.999999180826306, -0.9999999999998778, -1.0, 1.0, -1.0, 0.999999996718846, 0.9999999999980511, 0.999999999912622, 1.0, 1.0, 1.0, -0.9999970116272084], "cols": 1}, "activation": "tanh", "bias": {"rows": 100, "data": [1.54620002612154, -9.592389719446977, 0.7131110622577673, 1.1407015173216961, 1.1436232637606234, 3.3838238569419734, 9.135919413764983, 0.29694903651981547, 1.13373856546826, 5.729140083172766, -4.284951790514664, 6.544024986034903, 1.2031098964733355, -5.570046173163427, -0.6203983373980829, -0.4032548250524782, 1.2239798614239183, -0.7860626011436811, 1.0991731027283682, 0.9144499996198563, -6.377253104869577, -4.977027784471293, -0.1899871349433744, -4.2294142585996415, -4.953657556627737, -1.2142001058717398, 0.4850027610452369, 1.33152627277859, 0.866394970498655, 1.6092968216996881, 0.008074156513252554, 1.0552137420330916, -9.996283539530033, 1.1772897769029582, 1.0918012511750859, -0.5949981299493284, -4.391591519066585, -1.5988843634670096, -12.44949842720109, 1.0613562020022642, 1.4604384477251668, -1.2305811411688339, 1.166900782202977, -0.9814764567155548, -3.115629344807824, 0.5574724869799325, -1.5745895997304473, 6.508872807307227, -0.41288046332659945, -1.081587711948298, -0.9671581551569228, -13.80517304006676, -2.707470916191303, 0.8291294543563293, -0.18680725558534714, 5.90210925385911, -1.2507455391993856, -5.313445091516696, -2.311857866911673, -0.726355138055801, -1.5463326580780616, 0.19262112871102935, -1.0056700952129174, 1.7902789115974638, 1.4620806522351013, -1.5655912981270377, -0.8152867054343441, 1.7507640326018208, -0.051274364322045914, 1.8012050983208874, -0.3054365172971388, -0.6103960663433303, -0.26572454120726263, 3.306476152978657, -0.8345355730856118, -0.8685944345804291, 0.5982715150730183, -3.9345104431969293, 1.536440784958427, -0.4415923396424842, 3.1206244126188096, 0.02417169411712966, 3.371368651696987, 4.988002061510285, 1.4429766556770676, -0.33697434798783343, 0.8563256872919417, 6.406883242688396, -0.4640623847292438, -1.4510264666091064, -1.5328188994691838, 1.011773423512336, -5.804624909555046, 3.75729204567591, 1.3419610932980075, -0.1112206091784734, 1.0923726515575871, 6.072876567459844, 3.669239129794586, -1.2659762289832395], "cols": 1}, "weights": {"rows": 100, "data": [-0.37888106871214866, 0.7474732708459946, 0.3988480877733669, 0.9667732494069365, 0.6866969712984226, -0.30593407819926544, 0.19101514569140443, -0.21009535009485925, -0.15427368782807216, 0.9467808685004913, -0.8786393218433382, 0.39615161356603057, 0.04053493903771966, 0.30883804571783924, -0.2946396230379891, 0.3748556901369766, -0.3451559319788404, -0.5600826065606372, -0.5516712537246884, -0.8873751300981914, -0.6349897471073589, -0.625634234333893, 0.18564759210739168, 0.3361767560981961, -0.005241986353510697, -0.9578751789198598, 0.1560484094975152, 0.37706758683124186, -0.3299537691918397, 0.9361661652863928, 0.28664857761043083, -0.9186781142141611, 0.3940628744022936, 0.40066590304568617, 0.7971192909823799, -0.39674369071552534, 0.1655783770702311, 0.4740418294511448, -0.5598478276645663, 0.3303525815845314, 0.023709903203304024, 0.7177404683293624, 0.9546762086735073, 0.5687498024282186, 0.4319187654134612, -0.11598935140412103, -0.018875395996185807, 0.2266868024844577, -0.3928927777358031, -0.612354828223546, -0.8147912359648142, 0.8735883185742619, 0.07498939139874139, -0.40978286334409253, 0.018638432851715292, 0.06726935724009753, -0.5444935426569917, -0.8094786693209663, -0.8463297512915102, 0.9948108633771411, -0.4140510727200327, 0.6545200311941143, 0.7280671838278158, -0.5139923266687622, -0.16672795737909685, -0.8649419538683624, -0.5444385787836701, -0.012086950161806305, -0.9481891834704897, 0.31145176603406477, 0.3079005685996023, 0.8650914042119505, 0.8554826406813878, 0.5314282964869057, -0.7107605050757525, -0.6392384073763848, 0.8798711606118917, 0.3388105067295071, 0.5003606283621085, 0.8840446076511831, -0.6827544735220349, -0.5802958939604008, 0.8806227533278621, -0.924179083021573, -0.31841406301072017, 0.5505331900220167, -0.39734595394824845, 0.43517600550277735, 0.0075875532805450155, 0.6569363419233073, -0.9229592210323853, -0.48538639567899333, 0.8382408352172209, 0.6207546032467345, -0.7539082080682229, 0.041261420137551075, 0.8831673288756571, -0.331680987409404, 0.037699265154469475, -0.8425969077448899, 0.7444704334579136, 0.8253970688225052, -0.8809163364471764, 0.6485935365372512, 0.8395403967531372, 0.9342288125229394, 0.6185619564700638, 0.17661174791221768, 0.3586616669844355, -0.3908377506205205, -0.5370265209303158, -0.35134100884507324, 0.41195109211650305, -0.591209266116214, 0.39715829614651915, 0.1684903616959519, 0.9928445038210647, 0.5830135896912525, -0.7001060048787567, 0.5454564056093573, 0.23292293443246004, -0.5932932046717603, 0.9968715692873311, 0.19698266050717925, 0.06386909677519022, -0.6399605092240489, 0.7022006550939771, -0.7743175752710916, 0.5139784896050881, -0.6766265991589646, 0.10075940139836569, 0.7890023379293765, 0.6914200556986564, 0.7779688918959389, -0.2998939310610541, 0.11512843593016218, -0.4278887634437494, -0.00242837443107556, -0.10641308482306643, 0.7431325555933284, -0.785666872912212, 0.6936384302672753, -0.10613622341410064, -0.06181952297986139, -0.06926769054069659, 0.9438190089620359, 0.6998920340999963, 0.4577702796739717, -0.8311408295073225, -0.6781169362599404, 0.05826510922693509, 0.43924104695965294, -0.09948099131760069, -0.33728323596411053, 1.0442997385269308, 0.397063998203329, -0.44236987821325396, 0.026460288314115458, 0.29947004392879584, -0.28226060007713094, -0.18820736001270771, 0.7831110468131167, -0.13573447988305162, -0.6940892031479794, 0.34067807459617677, 0.60369491913386, -0.32883432801915485, 0.6784698994794449, 0.3213922212420144, -0.7205311382401509, 0.22676336257101937, -0.10139694766287535, 0.8858463354064919, 0.5718768985678693, 0.6383849739121901, -0.6240554166259626, -0.17930954319536446, -0.16264905039134633, 0.7920405327522855, 0.6146757237727313, 0.7626922028728421, 0.3331522271607433, 0.7532435599631888, 0.3094254959290503, -0.002614211411513103, -0.25883037491387023, 0.22841273122370118, -0.48994428160940273, -0.17615541547295707, 0.1049551068849397, 0.6960151949721256, 0.45400759415135644, -0.24979020924860684, -0.5102183055641445, 0.5961636437673998, -0.7503603482122168, 0.8242971092290672, -0.47283097882111275, -0.8655093382281641, 0.5327463273291037, 0.15140098136823338, 0.4071567775052781, 0.7105072072491121, -0.488765341332397, -0.07202303754782195, -0.19992484302868746, 0.9804351211855591, -0.1672900138609942, 0.4020928181629617, 0.03606380571875878, 0.24992480469332284, 0.4843429219441848, 1.1291323719539665, -0.29839121949781483, 1.0615538919920957, -0.14644318491261252, 0.6792380643532887, 0.11620090787618494, 0.9843338471054109, 0.3192966065652999, -0.6939105094248312, -0.20085410104901652, -0.35646026166615363, 0.0292147574643482, -0.36774238892836136, -0.26334658412323864, -0.7673012944746513, 0.7285522762817891, 0.8160496271765062, 0.8781374474724384, -0.03173099114986786, 1.0158218848579237, 0.45786989124015365, 0.004918649018072553, 0.08995328105324549, -0.5403402155182757, -0.11166504996168942, -0.0033965370756878326, 0.7886730778846319, 1.010740696402858, 0.07429725132374843, 0.023727383873383842, 0.4678095782330239, -0.0380556702234888, 0.1444253827347644, -0.22724895593120364, 0.6116590380741782, -0.5063979569203955, 0.3108158446684244, 0.5757412262760191, -0.520777844494549, -0.019044106018385267, 0.003881304976196657, 0.4669582345714432, 0.9803384900949365, -0.37214610224238054, 0.6772042474832299, 0.8340100914665446, 0.011281847467747907, 0.8378430820495866, -0.6350929605540256, -0.5496569352132169, 0.7095891865507115, 1.1155839530758778, 0.26558208616245027, 0.8108888231506441, 0.3951804504405886, 0.07639845187125453, 0.974501346988451, 0.57044537466862, -0.24902126093197088, 0.6050670001356648, 0.6855872759734197, -0.49967746036693034, -0.18027870121125775, 0.3824821205537746, -0.82260927387582, 0.7877444329499765, 0.9263458206486513, -0.4695578605120162, -0.59145846633813, 0.3925921326394025, -0.5866622747217879, -0.23451271588397837, 0.4445127571923246, 0.8569136815320941, -0.1490748600662318, -0.20823548509133832, 0.14301181412518044, 1.0951226522277822, -0.28822923114053267, -0.5967265352990611, 0.8852873311009195, 0.47109716930540396, -0.20672507118058714, 0.5738683108316988, -0.4263790383804866, 0.17406513519044886, 0.8470371228263645, -0.5766308762505041, 0.13449622251978335, 0.09404801690069224, -0.3625149644039896, 0.664343153934943, 0.5279070798633181, -1.004508177024104, -0.44402727656159696, 0.9195674790128764, 0.5410146416449716, 0.7499371432036097, -0.09725147592243091, -0.5642092492254653, 0.9933549724004672, -0.7268932803380622, -0.3221177662759902, -0.6877418743136906, 0.5771322210729639, 1.05760865841142, 0.4803290497946026, -0.08100098002818208, 0.368745738677759, 0.7539945300533765, -0.49481183780294585, -0.4273880164608684, -0.23631855419529274, 0.8246665319310991, 0.18487021361815564, -0.40935594797073044, 0.526542218820297, 0.41436709341774924, -0.5301280920948962, -0.6455631184672921, -0.35401812387814136, -0.39876098337254634, 0.32997998028891534, 0.3959664690785726, 0.5965919640869188, 0.007001061981231183, -0.4951776681824835, -0.5499955726283441, -0.2984805759923998, 0.9726670091904076, 0.2382615617816894, 0.5479462992848846, -0.011253302635471037, 0.34948232583796585, 0.7118725029884979, -0.17723470328227667, 0.30332727639216006, -0.6525675492391704, 0.5346989283382867, 0.9946585768143096, -0.6660604179412675, -0.2621241806076425, 0.2737964848877822, 0.14814712037041217, -0.6800749763669462, -0.0019169026768432735, 0.22656462506835742, 0.8514994140195551, 0.18544443866319427, 0.8027404999648866, 0.5781206821460751, -0.5033294635685754, 0.8520086826244727, -0.9724163922944178, -0.7036016479273195, -0.35287775428628515, 0.7215059403377709, -0.04979893308942573, -0.4168984113460838, -0.4380995079538758, 0.8504149112953358, -0.7450249729122613, -0.6059419358232331, 0.25819920016326736, -0.4727415146100106, 0.3318443332889314, 0.17448929678719743, 0.6054745861436854, -0.3723692158379837, 0.14422999919260937, 1.0389223014875142, 0.9896766705306408, 0.5689444074226919, -0.31098388715463204, -0.6180821298972206, -0.1652024971073469, 0.8073728712130389, -0.23745167293856526, 0.783755768328558, 0.6427854357413166, 0.5066370856555338, 0.8698715852139152, 0.16429968108962514, -0.8192921797363916, -0.37688093864420413, -0.3063909944778482, -0.7293684766347535, 0.33623881762021973, -0.5032780333022475, 0.38091649052880927, 0.5668496811810882, -0.6616683444270638, 0.2388360948925105, 0.8170920583196147, 1.038808217644913, 0.9043018674451078, 0.1963392832150405, 0.2257433476596211, -0.6349604675839998, 0.7841917742650427, -0.311198744686586, -0.28397654580675163, 0.007350913312275002, -0.799394087688679, -0.28564474961550324, -0.20284643582072556, 0.293712007170363, -0.35506853375665887, -0.7938346491076598, -0.6786556360842048, -0.37957972170831594, -0.3699734065658519, -0.3961299026450648, 0.24455520445163687, 0.4754134907133466, 0.6998936488283989, 1.0071554151575008, 0.8643172362399629, 0.9239448004008072, -0.6400996364305511, 0.9341977072840184, 0.23535369368022263, 0.17667600618388252, 1.0991817666103756, -0.7770105640752281, 0.49688745777613463, 0.0049168163415571845, -0.49503705350520816, 0.4129752669982861, -0.5852995968695475, -0.04866161376790574, -0.13819962757440193, 0.9891040893168768, -0.4201011920383418, 0.9045918796266716, -0.5394737764173685, -0.30096463488762404, 0.3054036277789206, 0.5033266103407907, -0.5595126414976552, 0.17148460934123616, -0.4171531667427649, 1.0112141865313409, 0.8030662627678014, -0.05796055284159024, 0.13908056156564427, 0.13433508395884503, 0.06731779399729623, -0.5464423161757186, 0.3065290186625805, -0.8920830717948958, 0.7641318245650138, 0.869675712307451, 0.1863344728027626, 0.3766884202739806, 0.3597438845529656, 0.7878000365276485, 0.21989688246128303, -0.4586957728854622, -0.9138783634924097, 0.6451054761960155, 0.8550375492879554, 0.5843439591757463, 0.6179789323031444, 0.9306294162295088, -0.03421052672213386, -0.10379274549134362, -0.534579361135611, -0.7777046321140225, -0.576584042413552, 0.0039405939006112445, 0.6299645119599873, 1.0397433990962113, 0.1536296328266712, -0.17067030809828618, 0.698841320051756, -0.2780938037797562, 0.17458156268637715, 0.7724299308997892, 0.9792278458981651, 0.82953893640084, -0.03749873308292384, 0.5564926102330882, -0.05270861354856548, -0.1464870116021132, -0.4880734745817123, 0.0930152523083999, 0.306044545294413, 0.8714363201305858, -0.003782827306054596, -0.20724643981053528, 0.4082756510108913, -0.5432986528062347, -0.11391071218186828, 0.9380410614843472, -0.3730959150001055, -0.682377614043577, 0.24993761051600613, 0.7079212579213428, -0.31709180760220645, -0.38176269284613773, -0.03931893267000818, 0.9955409937192496, 0.06750546924655422, 0.31767094975212035, -0.16127586145438835, 0.29021134490584927, -0.4273701120950247, -0.24347548713319694, 0.16789624639859324, 0.47990506505853703, 0.2965507863296355, -0.3268271956628191, -0.1345571284756679, 0.7605176995994758, 0.2539424546989353, 0.5528556602033788, 0.34850602505704936, -0.16571369681489603, 0.328542255106179, -0.6825778253957602, -0.6299223327732517, 0.8166153427852396, -0.16949886514732537, 0.8644911348521225, 0.4591492432345919, 0.9627870642240801, 1.0868303429079917, -0.3795737050430307, 0.2816132158440837, -0.23900998577813257, 0.17918847843691338, 0.7299367359727826, 0.2848221602830237, -0.1089090609734123, 0.14390116244427348, 0.5017657554071627, -0.5493824901938644, 0.002436278848157306, -0.14056817373055946, -0.10628061064608788, 0.6202980498259215, 0.5490410677380058, 0.6882225227544362, -0.09728857739228723, -0.38365488536016684, -0.2599833853512697, -0.6227704211666484, -0.34803937234732474, 0.7410975624017161, 0.34779619032438275, -0.6782868938400581, -0.5785827811321951, 0.4361687179852298, 0.03282125800852349, 0.8043846552460101, -0.682439510800103, -0.015015895229767299, 0.09897643415900326, 0.31367324432745, 0.7990631016037066, -0.7751862422177059, 0.15117306836668468, 0.38085715984554613, 1.0624099276829748, -0.6600530008925087, -0.6401661942704258, 0.1340287074160338, -0.247541475435774, -0.361494382612282, -0.6257273638165816, -0.8160358516810647, -0.9270499927546855, -0.32550528243638654, 0.07720437254979022, -0.18345008327628268, -0.9011192164476057, -0.5092675247405358, 0.4588531450960124, 0.6595387415276776, 0.36634044317064096, -0.15256607541359982, -0.7485715803977847, -0.7894513146941508, -0.6927980880374804, 0.8041149158560905, -0.621662501668436, -0.3676195797525081, 1.0456799101094434, 0.2867779229400742, -0.15332606244399105, 0.4563111005720278, 0.15824505212796525, 1.1001403142323474, -0.07141471699355678, 0.691122902976582, -0.29029359287904405, -0.4745302287794724, -0.4220705918246898, -0.16432227009874842, -0.6733981360676953, -0.4972771558868235, -0.43741458779089143, 0.4690850027020921, 0.2625854545704122, 0.5706959287340677, -0.324880482278431, -0.32036327523694236, -0.2967259029282558, 0.10718331803760302, -0.7999049595356599, 0.5739350959431534, 0.12508184917128365, 1.1329108734601476, 0.19614213458472826, 0.09757908836448197, -0.4129908268163642, -0.5228217090647694, 0.3220653997776813, 1.2431566803088803, 0.377388486523114, -0.030566244695664557, 0.23725674337732222, 0.7328055036140949, -0.8544757162716196, -0.022328463914096482, -0.7013821564882923, -0.9723495450339826, -0.30017583291947303, 0.0030382478665777865, 0.9807567265932536, 0.28466268109916015, 0.8470012465121783, 0.3509649097203289, 0.09321014435529366, -0.2955578373688087, 0.19353917073248914, -0.565753974433119, 0.5021252730227126, 0.4400156990078981, -0.5899990293413954, 0.21937292381771842, -0.5803617287437574, 0.32898239440037613, -0.596656205611206, 0.08919049484231475, -0.6482976561596815, -0.6761153017442525, 0.41146057513141, -0.06375557022159709, 0.29951106503831265, -0.1185519864070081, -0.5408448275615875, 0.794047901358412, 0.09819591152588157, 0.24832644001943693, -0.4833172595063969, -0.44642753067453234, 0.9571036951825161, -0.46872324138409716, -0.48795008924594785, -0.12533903465240814, 0.8778945755267261, 0.21586642951566468, 0.18588493480655266, -0.01615908110166136, 0.7606746220373155, -0.9807782346201496, 0.15165302917733206, 0.7956848749158666, -0.13412567120627164, 0.5569248858793174, -0.4124841482402724, -0.035143963613042194, 0.7369787309718867, 0.9997448469200906, -0.2642120540639714, 0.006683298662739844, 0.12137083048424775, -0.9329746034553434, 0.6820053624526611, -0.9072233567753232, 0.7482241978250025, -0.9237925073948701, -0.08739404845838998, -0.4731993652905351, -0.5206650504725885, -0.02466275382875427, -0.06947151009821817, 0.5135405178439216, 0.5872028904004696, 0.7057129674947431, -0.9111423001470627, 0.32181401520670905, 0.7579632549160107, -0.04617961210600981, 0.2166181335755225, -0.10691356109808126, -0.9188133853229666, -0.5702471737329549, 0.8383264771185667, -0.29848013229306675, 0.48926443186821617, -0.5211335466408321, 0.9415468324855748, -0.081058080619697, 0.029025948180764937, 0.8928183297563228, 0.3788729154678721, 0.6831817946493366, 0.3817990799946012, -0.8560001005155381, 0.7377011329292571, 0.4115784909041007, -0.24883312194562368, 0.6564963756055553, 0.5913429168385813, -0.9671579519435398, -0.5297535783195781, 0.35766400539547577, 0.5276099014576263, -0.8897524621377617, -0.204294078168468, 0.05008679376046879, -0.058959523949810674, -0.9606939150882758, -0.8351337879806724, -0.7301916556552955, -0.9409854150467272, -0.32073928298268073, -0.7261537466158776, 0.39616543226750145, 0.9086863024968347, -0.3307288244658074, -0.4144790508240284, 0.19148689368930782, -0.07284778735634508, 0.16899098463195306, -0.02307592841398925, -0.241312614467573, -0.10727255898840898, 0.3439466031417322, 0.1698680208378449, 0.7488743123194672, -0.0814819376384972, -0.8222806250661683, -0.8244783176511341, 0.7445926619572685, -0.9157333439449956, -0.6330408009090521, -0.7172125269223598, -0.5561217257259123, -0.3857946936132106, 0.23408554978762441, -0.6195558671227012, -0.370060187944161, -0.9893664463295869, -0.7483269949247335, -0.5652137663102368, 0.6647353398848392, -0.4184984691023022, 0.6012665268369117, 0.024440669056845804, -0.17524597201609124, -0.40121969852981987, -0.6730743712154619, 0.26382708790431014, -0.5328316666441686, 0.4812627472036355, 0.059557154566334036, 0.8207511463833645, 0.8486543765805079, -0.6657731025352465, -0.7876073512214332, 0.3148397395557816, 0.9644230233420084, -0.6318739026140194, -0.43939166713421174, 0.10531964369320423, -0.3312838845894288, -0.4248894121466551, -0.8288802278500884, -0.18168194795331583, 0.7678824281283569, -0.7382594102506375, -0.27756953709274185, -0.7866063298176815, 0.38580725754997014, 0.4141041534250316, -0.383557787847447, 0.120133244487455, -0.24853757397927856, -0.7422720596041728, -0.669007228133701, 0.784291302403771, 0.9506214244909734, -0.31497841810039584, -0.6174024717241342, 0.5162297834589498, -0.5265226584539646, 0.34464272923341066, -0.765428867104843, -0.17234302742555108, -0.4856955968084107, 0.8478061650915034, 0.2428792221559828, -0.7660731170299309, -0.7599152489595401, 0.8285862026950515, 1.4026987967470825, 1.057767626827029, 0.2166707238362851, 0.5647731130500042, 0.16249345455585773, -1.6569099045776463, -1.029743212901635, -0.40054470880159865, -0.12816621841419548, 1.0084761259427577, 1.5508707756705309, 0.8904481181609603, -0.25040441077209663, -0.2935071696949399, -0.32300263525087897, -0.05568234496372493, 0.7774568009480911, 0.0017078275905835216, 0.6505551444575184, -0.034321738069383434, -0.9113075146078891, 0.06100576264797054, 0.4185194334316718, -0.7700584607079629, -0.5901015409466002, 0.24322629786053462, 0.5460905633494222, 2.0997769968704514, 1.8166502252720094, 2.512659806894528, -0.022032387331787157, 1.5189218225191015, 1.8634093538059908, 1.3842840567608885, 0.6636663697809199, 0.3531376444297911, 0.6892877931674323, 3.0241538182181484, 0.8167845966648692, 0.6788302494111831, 2.5090975006852365, 5.221746696200925, 3.76526876085959, 1.3152837078212367, -0.4706333992718029, -0.763815780513726, 0.32870223785181074, -0.849318988010584, 0.46624278826861887, -1.3843216877384095, 0.17781056785607138, -0.028697962801729628, -2.4521487181893002, 0.06812306877887592, 1.4290470594304603, 2.4611062170099585, -1.5134363171525638, -1.050496640518539, 1.8219023061905488, -2.4902469793311606, 0.0006379385551108753, -1.5626427439600392, 0.6789723526622914, 0.13175137649186855, -0.8808885920242371, -0.41576698280831775, 0.693252302898529, 1.0946353267321924, -0.7975743472005098, 1.0837698813321304, 3.2929227369350524, -3.474500775498512, -2.7893593812861206, 0.35078638093091813, -0.7863783234577681, 0.6127429390434245, 0.24025422023951418, -1.417774032877583, -1.1553532921765601, -0.7346126547957352, -0.814343970844133, -0.9468417068445117, -0.46341756727089284, -0.20039387308147324, -1.3486773271797887, -0.7024359512792352, -2.71585598400537, -0.3452194701246851, -2.151136277475863, -0.327074169885449, 1.1835417572574036, -1.2597448449967568, 2.0049640495817576, -1.7028421733772299, 1.798051228183504, -1.32224419190908, -1.0260150806975394, -0.2695625602162199, 1.2241641780810517, -3.458157147331139, -2.5552963375400557, -0.0529345735266991, 0.3760012760802492, -0.5604037796580774, -0.06656345814417208, -0.9824953583613777, 0.47974295701495806, 0.03987762771223636, -1.9086918325553157, -2.334490232204398, -3.00737388380543, 0.29472354334939416, -1.7028857778487467, 2.8440612838599058, -1.8045108278299269, -1.7006985684502354, 0.001730632574148039, -1.8432674901494503, -3.3032586681814617, 0.5379181217088657, -1.6701944681560295, 2.4686304108266848, -1.0584916514474645, 1.322515609505156, 1.3015459149094313, -4.633209480508307, 0.6792900213345049, -0.37381374144814394, -3.863227604053418, -1.073017684646912, 0.008779246954379873, 0.1468984612583193, 0.967380497804678, -0.12610026939300373, 0.5494105462956149, -0.5883373925653768, -1.8074303517493102, -0.14552324137155861, -0.9577952541559568, -0.783156029300986, 0.753617565782506, -0.8093956233244077, -0.01274654783934474, -0.37552501672118727, -0.5198350410283431, -0.3230120820309291, -0.06408869671596448, -1.8481730719784972, -0.14410840552906803, -4.008022481008402, 2.2294844560963702, -0.2921155301786544, 4.262913515433307, -0.6030276928153049, -0.4094191592968791, -0.0299749057534287, -2.030504507316184, -1.7804241168546298, -0.7209154808804085, 0.35008871653787155, 0.4480885182495974, 0.07115623036881923, -0.7777962068310494, -1.5914392576918643, -2.2832523351935623, -3.118237052222445, 1.6469663283843792, -0.02763749223407532, -2.124115353730976, 0.17928783117365021, -0.5883022389038919, -0.333716104906739, -0.6605456703744381, 0.8674758216081191, -1.301218695616926, -2.907156653941471, -0.402626017307337, -0.6613541538962487, -3.1147692434315455, -3.021189254198954, -2.654359827562345, 2.4706375865739956, -0.08635109688110067, -0.04406516129237543, -1.9062960709520496, -0.7581298438947549, -1.0256677844987452, 0.44687513178463867, 0.7315930789450339, -0.0013677038066089928, -0.2587920742363613, -1.2765101645894765, -2.1062218755026647, -2.2633346764349564, 0.5097390673035551, -2.2368634579813182, -0.5861138813998025, 0.54561696327831, -2.4777715812586556, -0.8301520311999846, -1.788921190442026, -1.2627948142401992, -0.3310767685820951, 0.24246561877321143, 1.4026977003442935, -1.7185961973729664, -4.786515574735425, -5.5412791702493465, -5.094856445907116, -5.367593001812724, -2.9654121534737694, -1.8645991530389971, -1.4267510289844623, -0.15277343704666674, 0.5980882127522261, -0.5157635018234594, 0.6830766053785207, -0.349623357691974, -0.13234664092021464, 0.7933323845106103, -1.2951404279146954, -0.8664786771837202, 0.00833823168907447, 1.3018276138432854, -0.1774742368868739, -0.2265788060519811, 2.3509606557061655, 0.23536706676176308, -1.1734451510578856, 0.08258791232087188, -0.7526350974141621, 0.5082363577175794, -4.937310946518562, -4.364260514141357, -3.094417519045895, -0.2999512221210125, -2.0985934820548784, -4.536356993701949, -4.591027685457011, -2.6032953172695925, -1.2182100152053605, -1.810956588452472, -0.7668990325352059, -0.4721688268881714, -0.21891328961797182, -0.8397965223817027, -0.27976886246793237, -2.3582309368490773, -2.3213237392555937, -2.743521576440851, 0.28772109583721706, 0.7599670482654892, -3.0381329207648937, -2.4730120202235715, -1.2533795502555596, -0.6319857117593534, -0.31414957950291184, -0.4017347616910236, -2.579335505572352, -2.406400343321923, -3.3308563468043246, -0.5223490054335311, -1.4979541871839053, -0.522179760963925, -2.290048673654359, -0.6146224081308579, -2.472569738295343, -1.880993401198478, -2.5955553255466324, -0.9902498138287439, -0.557503269073137, 0.9158711394256001, 0.7907344716408929, -0.7172166033998709, 0.5148696194466249, -1.7835971509887232, -0.9700867874738429, 0.772835570424612, 1.4480002424676637, -1.592089540381256, 1.8691063105739862, 1.2445549461087684, -1.3826576783010003, 0.6123355460303764, 0.673939260735651, 1.0738346466115747, -0.6554088080011884, 0.8291861953949973, -0.8807776849653925, -0.7885755696142618, 0.08514112348661036, 1.4795617245802326, -0.9326343084999738, 1.022095053022455, -0.6902310832771736, -1.0074591603080398, -3.234406434841445, -1.2757983441549596, -0.7524436778899437, -0.27990180399541464, 0.0652172810720795, 0.460601829486131, -2.5082599959646283, -3.3261534110279736, -1.997039064406716, 2.4506635978324547, 0.24337193081702047, -0.3970925100421093, 2.068900846914233, -0.7085751733465216, 2.2471130392660177, 0.36433334288212843, -0.14456971708962102, -1.3964513797742046, -1.946261522737623, -1.1032245155229374, 1.2248579794655379, 1.2169166411861398, -1.880171750140494, -0.2752013311865817, -0.17811946570283024, 2.8847058738497275, -1.3567019834836223, 1.3019094018903674, -3.8066994627925355, -2.8343862679939202, 0.2206963889050635, 0.1376776120940491, -0.5159849837109708, -0.4655682295517427, -1.2402341201647311, -4.000396887923254, -0.9871539331107255, 1.3823035251913331, 0.3483755299114857, -1.690297198917296, -0.40956953275383484, 0.4243170922002846, -0.911082645839521, 0.7962808130613643, 0.9858489069670008, -2.2463712270739813, 2.6250334610385146, -0.4047691940485506, -1.3455912029078847, 0.2552847700281078, 0.06254301346706749, -0.1983701834980007, 1.9098589903241239, 1.088681168565067, 1.0780006795052426, 0.04039293624006871, -8.212863918111733, -2.415910882928221, -0.9308991977214494, -0.5899738266926281, -0.8342331289756056, 0.8403093939376789, 0.5144314889306908, -2.7297185919599225, -0.3323053681383859, 2.5338519181099155, 0.9497806396175783, 1.597913062668773, 1.5625213469547707, 1.7136560308256907, -0.09174605585482688, 0.8034872211617431, -0.514005909737683, -0.3941653330159673, -0.40957013904589523, 0.1898204740639346, 0.6100718834566097, 1.0337452530260576, -1.6140967639929167, 0.6943959962062929, -1.2053233773742722, 2.8460422327451202, -0.05962672411304252, -0.29303923870896953, -0.5227538084420222, -2.733235432459115, -0.9267937451283769, -0.5722465018762289, 0.3586327261673592, -0.9507799564864242, 0.7602334917481467, -4.0268483002848825, -1.303749551342394, -0.6415656495602907, 1.881631671047269, 0.0576985128880009, 0.34862881327618467, 0.30071807026788594, 1.0617622692170907, 0.13054297732184764, -0.306949009384256, -0.24120742973485992, 0.9691025038349558, -1.0391328018751402, 0.10650852223224659, -1.5319680669654951, 0.5891818649947594, 1.7892849658898022, 0.5217711005162161, -0.5007860835789231, 0.21957653950007958, -3.0288305879618873, -0.6207654201620093, -3.8306044446829968, 0.6948186698760549, -0.582182255976805, 0.827144835171569, 0.5729790472244407, -0.6415637415020162, -1.2053165855753794, -1.0146773922908081, -1.4302813481914822, 1.5105602343776523, -0.27927851936122183, 1.4198856103042254, -0.025484204205861158, 2.9933572150028205, 0.5057453040034413, -1.258457201136533, -0.1992448893247704, 0.9652150885552476, 0.4043150924740552, 0.26100488850836906, -0.41479783018180005, 1.0197152140725771, -1.0648053809583902, 0.7290133206701569, 0.7884198046902978, -1.5649699678832976, 1.4431993336453803, -4.050720431159747, -3.861055913617213, -0.9490687505525921, 0.28713643961326607, 0.8485065512895071, -0.8854775142515068, -0.5462675266107722, -1.6220056823770852, 2.4778917520367614, -0.5513396310252895, -1.38248272623074, 2.1522541512316327, 1.4980978173657529, 0.8613962714872042, 3.7157359163585384, -2.0718091587648586, 3.2757544360662205, -1.2514110041196143, -1.0654876946053604, -1.7876829803515373, 1.2744295501315492, -0.4858014125780347, 1.4317138792516202, -1.165667618334125, 1.2786618472410998, 0.006478275959164288, 2.2488863874529854, 0.5599164808541047, -2.409228184874011, -1.214966025593897, -4.111346067252414, 0.1226868330485124, 0.9281506407738146, 0.5388242979480745, -0.1601465598669808, -2.2540994422108063, -0.806695489234621, -0.36212363369584344, 0.195966392495761, -1.8324928838830215, 0.6674493971717064, -0.5036291163881488, 0.11159556771338451, 2.70464909491416, 1.212395920015837, 0.5110664701808452, 0.10347320043777478, 1.1095954318026662, -1.9007490513559617, 1.8414428140030024, -0.99107339902927, 0.30190593498762225, 0.6394656818748194, -2.5627394668034755, 2.7935669230009674, -1.0365027536368128, -2.4556244124320075, -0.6272861190176838, -0.8531771979149569, 0.22394135420478886, 0.6590146787497009, 0.31794289107492546, 0.14698542742862086, -2.095859041636358, -1.6089652319875305, -1.519740802738602, -0.779792288626306, 2.1427895994651114, 0.6593711466342375, 1.6154524015541012, 1.0159986515019186, 3.8835147938744607, -0.20831119246393492, -0.6235452327412001, 1.3370434071960842, 2.2152070586477377, 0.18897562583945812, -0.8724102621409904, 0.7681290854676276, -2.4831024584595136, 0.26000384258624337, -2.4140314900834405, -1.0868748473724625, -1.2243177938310235, -1.5556153575192488, -1.459985941242445, -0.5203890576677448, 0.13123416289868262, 0.9119976747945198, -0.8761014615115189, 0.5308911375240986, 1.0046673060434699, -0.08148075848851302, -0.6251124096723889, 3.1916625801246403, -2.8482647029344754, 1.5971535392070628, 1.224621923664867, -0.023075738829583504, 0.8986243473675173, -1.9112350720180522, 3.045957477662912, 0.6061675399343218, 0.5427565923602351, 0.15279902644796822, 2.4025087630248816, -0.5438656009826509, -0.26423350003794177, 2.5187100432477263, -3.606421073375566, 3.5772495880460715, -2.117257872137012, -0.9883492296478557, 0.3294393109332325, 0.3098593137517628, 0.4053288723133372, 0.10137761784289208, -0.43148169174350015, -0.18380726584231635, -0.6008792399638435, 0.9278250797761988, -0.6803191519013057, -1.4332028576849336, -0.9965385424299901, 1.2646301045516553, -0.3840151573105528, -0.806924175802809, 4.410414148167259, -1.0904302492852953, 1.7798342765711948, 0.36822199133193634, -1.3535070317199538, 3.4936018056425335, -1.3579154407871366, 0.21011208559031813, 0.5499357443929538, -1.174513814383256, -1.464219233087317, -0.051518642956633845, -0.7046432551851551, 0.3280974065282366, 0.7882828718511985, -0.6614233092772465, -0.7917928329511404, -0.9734214147740522, -0.3836403132016501, 0.39533484742685593, -0.08436680034493388, -1.1261737703689392, -2.1244205415086723, 0.13679876317563797, 1.890213939863197, 0.6927775817848385, 1.9963338090135445, -1.1821591410803132, 2.2411185865336636, 0.7147192342348284, 0.36398122601455674, 1.575243990588131, 1.448315855028382, -0.004879313728373031, 0.9530358875793755, 1.2965668277606044, -1.1066197373488562, -2.638192459822161, 1.2362795424166544, -0.6563241205904177, -0.592155287828236, -0.29288506715459334, 0.35449674099859907, -0.013670473748684088, -0.6888599848783106, -0.2749490009444109, -0.863195341037163, 0.025534731147335007, -0.7311593054060599, 0.005998344479914183, -1.0292798878063942, -0.3507295658047539, -2.166816815326968, -3.2071471785796306, -1.5458524398307474, -0.896145447165563, -2.349904247485824, -1.3850386980233005, -0.8479976606156308, -0.4855311889191156, -1.885027733473931, -2.577312777553037, 1.3815814714090697, -2.10029273627776, -0.5604535337557791, -0.06307480930941409, -0.391406429299327, -0.814781020291948, -0.6105165877155408, 0.6566811068303737, -0.09965653995038345, -0.48652139979909403, 0.21191294760838097, -0.7809098306287676, 0.7587155942281483, -0.02648471937171506, 0.2809275762727923, 0.21087219616329306, -0.09543272113348807, -2.2196663236168814, -2.8893117953090752, -2.3211016327173417, -0.8043959950613868, -2.3750216123289425, -1.5748175427181503, -2.657281322997496, -6.692895889895178, -5.639900076445821, -1.8942422738202398, -0.94924436580628, -2.896016440701583, -0.7943205637877421, -0.6238820694426545, -1.6477794033792588, 0.6584574865613436, 0.32582889722427116, 0.19599301209667086, -0.3562866245705911, 0.15319140012104743, -0.029329992379184322, -0.6586803076106675, -0.0944196433619835, -0.2851422860243795, 0.35850446189031215, -0.5632465015040405, -0.5095314378342635, -0.7406899492447502, 0.5751471983896862, 0.49449105436124136, 0.04995943684808013, -0.385130790778519, 0.29440448637983385, 0.42759925275259003, -0.9749999659004007, -0.3744951980261215, -2.8287022445127925, -2.129149669621424, 0.6408967417455248, -0.46074715609005473, 0.04834625394402243, -0.44187382194739766, -0.6099220086957833, -0.7877162842951927, 0.15187661140729325, -0.574249951785203, 0.3314287351267941, -0.14970715166189594, -0.9275164860758103, -0.12083086412882649, 0.5186489932689122, -0.8976895880278108, 0.5375609018239695, 0.34821467591098393, 0.18375353673992972, -0.8790534866293339, -0.13214401134842632, 0.19525636663251741, 0.30933148310546754, -0.9927071064926513, 0.7546334432023731, 0.8740598850868834, -0.9015592412310492, -0.3942427851535028, -0.6174074743061266, 0.3136494222697576, 0.16002620489135216, -0.44073569966563186, 0.27118383212967173, 0.33387798939162816, 0.2738519330842178, -0.44771859338507936, 0.2643934808592515, -0.3590038617752254, 0.022055452024815514, -0.42896473799087964, -0.6944250500998397, -0.9008817751782738, 0.5813160005034177, 0.10857759103419973, 0.20092252485769957, -0.31571195702646815, 0.6591375654915003, -0.029848952693287346, -0.712832544156191, 0.2303220226481519, 0.8761302021911631, -0.07896316708900233, 0.7704606718048334, 0.09210146788622325, 0.03415473854177792, -0.19067251459763257, 0.17030830238334144, 0.35057243451304143, -0.2753624884668932, -0.9370554266557211, 0.4637698627746517, 0.628028089383342, -0.9733800435017907, 0.4659849835440495, -0.9019713731016242, 0.10178211907474588, 0.6482331277914004, -0.5406373518097123, -0.1937243376119313, -0.36957299063729177, -0.24739179319973514, -0.891087398217066, -0.05293110667819656, 0.4322934068871249, -0.21421061062371982, 0.9158811343992916, 0.006027230279755047, -0.11740906076815527, 0.9571419342706895, 0.9654149118190383, -0.3625148771469848, 0.9371825042964114, 0.02386013181225474, 0.006591330298466871, 0.34825803339425493, -0.7327145024866313, 0.013412589979089118, -0.04995814650882502, 0.6649797338115317, 0.7778027582712079, -0.7965710257799767, -0.07528243487270081, -0.23453605141052813, -0.198630095419718, 0.6686755403142668, -0.8108096460711458, -0.2896765080920176, 0.9143473154175827, 0.32045111618567135, -0.15300124476486787, -0.6072246556374237, -0.7409054779167243, -0.2713770369748792, 0.27000518320725325, 0.42763459915605967, 0.13418764057587035, -0.2100744470302012, 0.9218683158325433, 0.2538572378273156, -0.6459369525852225, 0.4473337308514698, -0.2972384353606877, 0.3000999345136888, -0.26106074926558664, -0.5583516811661146, 0.4127233477488304, 0.5201527680011717, -0.06166146887864723, -0.9422257702289933, -0.3661202037301737, -0.608723209019399, 0.45497775197056467, -0.083599068851538, -0.6246392761669561, 0.8804265278631804, 0.44808787003980566, 0.2139872683127655, 0.16634357359286667, -0.8789008719272992, -0.032973485350189194, -0.8025195461702099, -0.7751277957834638, -0.8413151995237579, -0.052815391499558405, 0.9252622051719297, -0.059163230555277946, 0.08146327155494221, -0.431416821898319, -0.17023531203777942, 0.11476434917086309, -0.6879962769896374, -0.8041566849060837, -0.2367570318258064, 0.523305902159207, 0.8572086885683244, -0.5843022981158964, 0.4941181708819369, -0.5740630091402429, 0.23258212926464267, -0.6933302961674994, -0.8714632509310698, 0.005450574157235044, 0.2981874711234651, 0.8001781583482983, -0.3495691153015006, -0.8293807666314394, 0.5366793005286941, -0.32414197432467945, -0.2917546709904255, -0.35009644690775843, -0.049586728705545806, 0.5905462828726716, -0.6631043498581032, -0.9321673820012123, 0.10719355626561344, 0.9869182017700062, 0.2479704530927893, 0.32483776619042093, -0.7219492933017446, 0.046305398641719044, -0.2316554055342278, 0.7897403416478791, 0.49202188813179937, 0.29548700206347905, 0.42271347634340606, 0.9577737614342288, -0.044126203829761027, -0.43916561659572756, -0.19590794273489465, -0.9540970457974456, 0.753670116408427, -0.1732289174478261, 0.6687924612490654, -0.4992630357828514, -0.5490309835743561, 0.08297387548774819, 0.6687865014123743, 0.35445541914801876, 0.17778058458547885, 0.39613797286146535, 0.35803098276558076, -0.0577710718318479, -0.07053939684911524, -0.14219623424088426, 0.921320622947364, -0.36248395076821965, 0.8854291289735167, 0.3749549141206241, 0.7185295698690385, 0.41044270259870524, -0.5682856798629532, 0.5520619925278349, 0.06527484711202033, 0.04520982854873557, -0.5792036827898006, 0.14424154035716727, -0.6970756955679724, -0.44882362715404234, -0.86124199873781, -0.6688570034822168, 0.6076852773861807, 0.3243657657013357, 0.7903142310237659, -0.6932347314098461, 0.21141228061645606, -0.8378471418182553, 0.9185604177309333, -0.6432107173107022, -0.6944542552557192, -0.6494010849226085, -0.5791528452054552, 0.9867468123598383, -0.0023367927759558368, 0.2686585044397802, -0.5098682568470638, 0.17478820246085228, -0.23207601462528918, -1.0499326572246657, 0.7343582997704051, -0.39719339542027343, 0.9767338673703883, -0.3417380136296618, 0.3135410407320628, 0.9230403200883237, -0.9640970511171297, -0.7463347298632838, 0.44306160860084326, -0.9579611225622144, -0.17944618753288233, -0.05643311270173173, -0.45570942723429797, -0.3228401482851298, 0.9402249980392677, -0.3554090502835253, 0.7714767667323871, -0.46678059154808876, 0.3706057390577259, 0.027535241911633524, 1.1952479832691014, 0.47569352245226904, -0.16550558340914912, 1.0649447939313395, 0.3691403523641946, 0.7920301985242592, -0.6010871630123419, 0.8005473687476581, 0.5701829249182667, 0.7862975087161881, 0.10603453955211767, 0.6385349819682912, 0.8133964392188187, -0.203192712887305, -0.9955225378778065, -0.4276223469891882, -0.9734379816203225, 0.23741048033928916, -0.2885537745150291, 0.875958484410756, 0.9497795084302352, 0.5858522859564046, 0.23895420163738396, 0.7617092195832698, -0.5535317361889011, 0.16238627280022352, 1.066034556731566, -0.33699101914524493, 0.4027349270617766, 0.22790128074115615, -0.49915280176785615, 0.4799415581585096, -0.3459464067904959, -0.29767840363245085, 0.8300762227490474, 1.1334403847746726, -0.8546724330046515, 1.040413393891417, 0.6525129616771759, 0.6148362410985942, 0.4301048897567479, 0.04421995856044349, -0.47956143325014455, 0.6745706477548161, 0.7280333144303517, -0.7888401676735277, 0.4101326827149821, -0.18988007698078832, -0.9299707390528776, -0.604328149935371, 0.41111402722921486, 0.8420996555274162, -0.339382204911897, -0.08609081076174434, 0.7606066704401572, -0.029567823354448214, -0.5288503393693733, 0.12617783242868372, 1.1485553111899658, -0.4496278933252004, 1.0021273682175498, -0.38400669922555347, 0.02489239751803381, 0.37032027166078046, 0.5150079735631309, 0.553815812925263, -0.2185518245119291, -0.8814919750196956, 1.001885797859956, -0.1652793772962134, -0.2018796775972727, -0.8470172713067471, -0.9317743886371554, 0.2919538740759609, 0.9366534912234399, 0.7788155292024125, 0.5182134175246556, 0.027772568061565372, -0.4655917803790102, 0.17418325972042062, -0.343014647695916, 0.34996197324660716, 0.4194220024739496, -0.090860717792647, -0.42660632214611877, 1.1645384783225574, -0.34944855375386624, 0.555815382233941, 0.466039727302934, -0.16756403610213613, -0.02604786520277811, -0.15357960066687623, 0.025019422385145988, 0.02260350264187577, -0.40544522237189623, -0.041933298278855356, -0.4125245329876822, 0.7510318034189235, 0.934584979030588, 0.5331991045848135, -0.049641438605220994, 0.6645621957957318, 0.46390351993474854, -0.6470509401940547, 0.6747850011620173, 0.9223265177052838, 0.6480029828492883, 0.13804412342598743, -0.9342552907743045, 0.7881582496145896, 0.011434008176113376, -0.08492688535986108, -0.6489365533524342, -0.2302303524717161, 0.2484481348739871, 0.4759425637245859, 0.921200905623344, -0.4179701512507566, -0.14028326709400118, 1.2170201265508755, -0.3739813438635908, -0.13579460571900365, -0.0385050460110654, 0.195227950097468, 0.5774865835743851, 0.46724598229741926, -0.5017588320623527, -0.4761128774817309, 0.7488282450575489, 0.3836785224161952, -0.8411549300107926, 0.88851556575713, -0.6649526469563304, 0.44229917427018844, 0.7630076694481472, -0.38228707644632964, -0.30891417349797756, 0.3510848472551949, -0.48085628379234235, 0.044605963134178785, -0.4052584628275911, -0.07600501204459435, 0.2998036175468988, -0.6522259250377275, 1.2109217159869825, -0.2516135056554996, -0.4419446080098185, 0.9005859857330074, -0.7393985702813665, -0.7970434442249632, -0.7831907379079355, 0.4987819312617831, -1.0089556810401956, -0.6752805414886702, 1.005442042343222, -0.562117853283753, -0.0837853016668056, -0.7843747791673868, 0.4256066470232926, 0.5023766824368929, 0.901686014970737, -0.8466965511477363, 0.733242433848596, 0.8748520736935539, 0.8789186262057895, -0.7810280516114003, -0.5437141869579311, 0.0007220116921501581, 0.3527437085362644, 0.8728857761033324, 0.3434394648451641, 0.9096810229653147, 1.130023912797434, -0.7161944922884806, -0.07154164660509736, 0.494066422395133, 1.0067893886120896, 0.31960643310904774, 0.002619811400618184, -0.3485463335796898, 0.9384624016817106, -0.22931147845152997, -0.05472182273914292, -0.2638397005297692, -0.5161008951543835, -0.9844296082329966, -0.836674423413318, -0.6776614183239824, 0.9273594036205396, -0.6265612917885747, -0.8143230447888041, 0.2462346627368713, 0.34841200755739093, 0.8627896549477564, 0.18041675034792556, -0.38286929005996506, 0.3765553849943876, 0.4429099492533072, 0.29205621250753433, -0.6996303899988944, -0.7309596570529456, 0.9853983640412113, 0.5076810034213761, -0.06341090799067893, 0.20090668960445215, 1.04665446130225, -0.6822479249305512, -0.08544289763954291, 0.8845181624640012, 0.9450677864192976, 0.49679243824167896, -0.5178438177897625, 0.4231872842342426, -0.2407878118428275, -0.27986691187640084, -0.7326566255530435, 0.15952781328447938, -0.51364620403468, 0.00870821241313694, 0.37693823424202727, 0.48818000992999544, 1.0917812651084342, 0.5506829535866287, 0.8211043271557279, 0.6861417368338234, 1.1872030316269266, -0.07309233743155978, 0.17500501586021033, 1.1765901437341562, -0.5335661327774845, 1.073321500546551, -0.28691741271367555, 0.7361863275827832, 0.09917627052722133, -0.30488637342160624, 0.33550058052498316, -0.8519814015401409, -0.8286513378249996, -0.5206672131323193, -0.5319455053983732, 0.8206276268740692, 0.70599169544202, 0.2834954895207134, -0.08317969949565993, 0.36785415501923785, -0.3875209442716549, 1.021235403633759, 0.04012810371485459, 0.6613659406643061, -0.3342195609649992, -0.6434751704374733, -0.2511971416832755, 0.18321499093823607, 1.126153540434984, 0.6961947392222523, -0.15397287484864267, 0.30448616336508766, 0.8793784940405739, 0.4537432676967093, 0.45433420997519935, 0.10843671711590203, -0.28094828306282554, 0.07872456504492253, -0.3541898896924647, -0.2573752804650623, 0.8287094994990151, 0.2621887687503078, 0.6066709940656368, -0.8057821530917799, 0.6212406948824991, 0.20603079465742152, -0.2388810917729422, 0.09120473441353252, -0.6987813097057792, -0.7006982600518386, 1.0590631662647567, 0.8209225927759985, 0.006923187206771179, 0.48846476307699854, -0.5997232423759173, -0.4983208635698098, 0.16394322532991215, -0.2908795288938014, 0.8746534965623873, 0.11466917184393843, 0.2739794648338919, 0.018023369988108422, -0.612865936794098, 0.6624578382188, -0.03416678713874767, 0.8840142670782026, -0.052609394697615185, 0.07925076738687369, -0.32772003862404814, 0.9088427431872675, -0.1635456467508776, -0.2742561219592787, 0.6298279973492782, -0.8566097213728853, -0.5784482453963338, -0.0695180065380474, 0.8756269479122586, 0.7740004670996872, -0.3724213665061883, 0.7081295587372851, 0.538776971123195, -0.038431045336420236, 0.29161752088677745, 0.10592691022100992, 0.5403603584876233, 0.3646999863268383, 1.1347645061744587, -0.6458062429497611, -0.5605075291300259, 0.9869027568180185, 0.9765070359727815, -0.5945170483085791, 0.31664075261883506, 0.33301929417111975, 1.0302384590880067, -0.5491704970787885, 0.920275925998149, -0.03437130485178014, -0.9015066741895068, 0.8926374766138421, 0.7915497000340858, 0.17715394681286553, -0.16326049294123177, 0.9824936860000529, -0.3307496416538225, 0.003389303077457664, -0.7035462166181417, 0.830119398656255, -0.7038081086496316, 0.700659606246585, 0.09573062833302365, 0.9863529283258695, 0.4595772490016384, -0.34624608526651035, 0.13064295634770184, 0.9930878250447801, -0.5373659716249605, 0.6244374778667457, 0.3114187784254389, 0.07052496722381253, 0.30064363138354294, 0.6954625480502415, 0.17654689176733687, -0.5535411979512423, 0.6331440872354901, -0.6443028467448004, -0.6524297589886254, -0.7518438658909845, 0.7294990534779078, -0.6075793412391882, 0.7250480021536706, -0.29623124972083553, -0.48392980519112017, 0.027856380518368282, 0.18994475349923587, 0.8319065524227687, 0.8778322456354929, 0.259460024144545, -0.757418898346063, -0.23658486829688286, 0.8227246946442079, -0.5808903422503529, 0.9916900816616823, -0.48008076574979547, -0.2025355757041581, 0.2913457684048098, -0.5046493371298532, -0.23985902704465248, 0.9501782461064863, 0.41846812209533774, -0.7583601110072586, -0.127227663626779, 0.19237285296814763, -0.9140462238047349, -0.8432202730644299, -0.5844887749457311, -0.07320266638963302, 0.8930038361726655, 0.0019201987848967708, -0.8954541804510372, -0.4542005666924139, -0.17713372665348265, -0.8853731617880212, -0.39555485769825677, -0.21452890666727664, 0.3547115626842689, -0.2669025662035771, -0.615546163588668, -0.3446119017590853, -0.1410005772543283, 0.4468859886052785, 0.2612885601405434, -0.5399429619669801, 0.14193006125827656, 0.3212531377603119, 0.05253601514075308, 0.7515624740051676, 0.919687125515029, 0.8745355362714919, -0.3814453822311568, 0.26455669795888637, 0.11866892909482175, -0.42480037883624683, 0.6580005224569176, -0.5747457756782285, 0.17149532448790808, -0.9612804763722917, -0.8999133982832695, -0.20479646663400117, 0.33594543225316237, -0.4781427448078143, 0.09581592324185555, -0.5913124943466339, 0.9183555329555995, 0.8415626623025023, 0.4299910499493811, 0.6291731911158566, 0.33300671148222877, 1.0100577361907868, 0.525388170095057, -0.6805768481975528, -0.09914435291855217, -0.6024556188461062, -0.1564366414722816, 0.5114835073020976, 0.25345420796938595, 0.7108051805316578, 0.7753121915245464, -0.2188049036567558, 0.7824868263542949, -0.838659987370274, 0.0770174289505332, 0.4138204024209984, 0.2522759493353568, 0.9310123208304283, -0.9070136387962359, -0.2751741085711788, -0.037758990647006115, -0.7621438552270414, 0.6167379156316358, 0.32200397086203847, 0.9157901263156514, -0.9087397960930734, -0.06001061048304891, 0.4937509104303597, -0.5025903739170933, -0.2837857910605288, 1.0055575785547886, 0.8986676890375388, 1.1774277277317728, 0.001344696791969151, -0.23169346019421547, 0.12422337647251833, 0.23201916106686019, -0.33643114754400344, 0.8905483619759139, -0.3853504145889538, -0.1326410337889972, -0.9016688669127293, 0.6584880166823708, -0.2928263082412539, 0.4871723248904283, 0.3600139173807693, 0.6686780820531726, -0.29675247120738024, -0.6647024604806436, 0.812367114602721, 0.8505518239669118, -0.5630929621789347, -0.18635895928459736, 0.4929771676038281, 1.0939490645421381, -0.2851211654057308, 1.0136247538544827, -0.1476240879124186, 1.0541974722778267, -0.2517971100405701, 0.5645897963606427, 0.6385650081594025, 0.7361390185396216, -0.38105241898344394, -0.5179813543999053, -0.125521551018005, -0.928311454118832, 0.9564552491018269, -0.3769389844694954, -0.6111801438782427, 0.5976721250031793, 0.5397455286898174, -0.7896490851788847, -0.9493586059485852, 0.7089738752363957, 0.4030095633634922, -0.5273146951030371, 0.24743847224189777, -0.43147143211209094, 0.9835970096349218, 0.8209369922309356, -0.4928662560326551, 1.0440697894086428, -0.8000630276760854, -0.37028920637545826, 0.21460133832829673, -0.8245182229640846, 0.4108849968099835, -0.8123810080986646, -0.1313520619826024, 1.024863314811563, -0.8049165368718206, -0.5266180066382014, 0.5167536895321695, -0.5834782336825269, -0.11710911375763493, 0.9880559729818186, 0.8596210950892886, -0.867476444985388, 0.23093953045842475, -0.6085430995200978, -0.8352747397308171, -0.2833443226550617, -0.6726086135683502, -0.7620402441551428, -0.7703785625781974, 0.5386808681705886, 0.38097950458184937, -0.5735249087929931, -0.5368227694150016, -0.7486354259554089, 0.9800479401273174, 0.09880657685959833, 0.19028581290680513, 0.7624586996921978, 0.19865550029857465, -0.5295846732712503, -0.35129811278918216, -0.7844659299742323, 0.4770442664249143, 0.41281982676421586, 0.4400853137771066, 0.1795553356859464, 0.35256731037254296, 0.501179927811527, -0.4762750655318239, 0.6008020759286485, -0.5956982678827645, 0.022338986982298747, -0.2149958800429479, 0.9798312555577909, -0.7113982737872326, 0.25096041089515797, -0.10315757374027908, 0.5488938674356659, 0.04661239793608578, -0.38215214798195246, 0.18450047410863657, -0.8525238738626084, -0.7124085772033386, 0.22229251668772743, 0.24077171484245793, -0.20154136925155453, 0.36530494200865565, 0.42276938053163193, -0.0019263761580103414, -0.22644405020118005, 0.7908013629125452, 0.6897585600687929, -0.3741457103939981, 0.09701013280493234, 0.6427132755996737, 0.9425880504697857, 0.40446487601805114, -0.6604395273065033, 0.375938348814433, 0.030615311726007288, 0.281319883091969, -0.6244120799143564, -0.02091635795775977, -0.047524167468429114, -0.21606896629287417, -0.29505784609169816, -0.8665866652730587, -0.37934641429203236, -0.6364584633285685, 0.3662699785046103, 0.9237519554655735, -0.24281938395353503, -0.8664556509828008, -0.27213748532565574, -0.4941208718686088, -0.9455287730496811, 0.34921276798696044, 0.4012125487875879, 0.05616982205374685, 0.9703249600175866, -0.9275153586560917, -0.3337265708627634, -0.01679541415415642, 0.0391113290991314, 0.481778512020294, -0.6823031788996832, 0.3227857919764696, -0.9796294396018559, -0.7565219391999456, -0.6987215066361712, 0.07409351976776613, -0.268906284069512, -0.4172816345790349, -0.6196767581285845, 0.09243189569787025, 0.591103051437498, 0.8851654438142156, 0.6164932039090196, 0.8585573409936444, 0.7271261654985857, -0.1231572277651943, 0.5061002627304252, -0.6974422818520019, -0.5751455904280525, 0.9240345765057247, 0.4948548088974045, -0.8218951133645791, -0.7205112914113179, 0.4767850547953274, -0.11682361414003561, -0.90276950785141, 0.34801220237080854, 0.05375629596914422, 0.34773224525783597, 0.6037063071002102, -0.46915524482162807, -0.019901424777499788, 0.5320092002410124, 0.6316037354494681, -0.08698217224916971, -0.3158944516639299, 0.5721813468813411, 0.8894680528717983, 0.332880850431244, -0.6770920362726859, -0.26778658099011454, -0.2802869847094548, 0.6109485380920242, -0.6252602578890613, 0.4347868227438856, -0.7909976008140478, 0.8610316978517301, -0.060555107702081654, -0.4222959394939458, 0.025433928682046508, 0.42114510123060767, 0.2545016534351377, 0.457275065569849, 0.7465815402562943, -0.4475074080864554, 0.8419714311201798, 0.6262477234027568, -0.8505805700799671, -0.6615888114933641, -0.10477716869507603, 0.6726907785289888, -0.4488060779475156, 0.2679898020423973, -0.014224556812151576, 0.7758495127765241, -0.9280181295052985, 0.791825086781478, -0.5065983004230816, 0.6233722428154304, -0.429255599940989, 0.4660075786518236, 0.3048144202586216, -0.3177192856256039, 0.4293623102365521, 0.8383034887988786, 0.8736608634294145, -0.16720625184864008, -0.5197284092441191, 0.7258371551442877, 0.12665593864901717, -0.25940222625792453, 0.5691000576557701, -0.8290625314452165, -0.12606614928575466, 0.1418911901783082, 0.59534899833104, -0.3376096367778296, -0.5220482958187417, 0.4608791664981309, 0.9203493225965602, 0.2836268556990499, 0.8466920304365695, -0.9111497774370382, 0.27389991126192015, 0.8506553962353737, -0.5468042233338872, -0.3602783944710359, -0.3691664283494225, -0.5640894817038572, -0.48667885242427217, 0.9905998032582262, -0.0664884202521164, 0.4976022881528839, 0.19775821730244975, 0.7823927957499348, -0.9669824057511927, 0.7720056764578408, 0.364705225666745, -0.126386230014711, -0.6242859419320309, -0.18894856443338848, -0.2715807484245365, 0.4791133744948235, 0.30014627715533404, 0.36045749135831623, -0.29073781212679184, -0.5490359312323629, -0.9427181186396949, -0.6863867845552496, -0.15543200293265466, 0.9292067816795774, -0.712766360710601, -0.46275037075538816, -0.30976140699141264, 0.8368918058526251, -0.554368265939629, 0.5530804652766258, 0.7379023000071672, 0.6672304698210312, -0.02502129859101094, 0.3448097133397101, -0.4812736088383987, -0.35043811436631317, -0.1628264437637267, -0.09721690389349737, 0.20411107450701235, -0.2035057330433732, 0.4821446113468587, -0.33043165071573777, 0.34822903941336836, 0.4486497661566461, -0.8823869842982301, -0.03602275840811342, -0.1661124587306952, 0.8240508171165483, -0.7823432447150588, -0.213927880654085, -0.4324294241928092, -0.21765958378405387, -0.6547221043377891, -0.4587884195892953, -0.34792464033489867, 0.26954403646429576, -0.21340854184310565, -0.330473207659235, -0.3823635092460213, 1.166934702432368, -0.538995585765528, -0.05787172983187202, -0.36317678822058164, 0.06092471258075476, 0.3950486443365623, 0.49092111979030734, 0.9071329307339656, 0.9374512574390095, 0.7183792003198979, 0.22046105270952332, -0.5534265708045105, 0.6067746201511762, -0.9094262275312772, -0.16644118678621386, 0.803603279386917, 0.22690709908533852, -0.3301958460447808, -0.3210628579471093, 0.6591991038857199, 0.12735711768984653, 0.9169608987989258, 0.44975703667563377, 0.027334045596249336, 0.922113749614238, 0.08990347278045016, -0.40125918918576103, -0.36166151499857296, -0.5064411272742638, -0.2617537294162138, 0.8100159161190801, 0.7256790447279109, -0.19839809487868668, 0.4072692482163629, -0.28852539689757556, 0.9845372267962769, 0.29114501291203765, -0.8547734842186199, 0.1126653930201931, -0.037693897988794786, -0.054831947793116766, -0.7575876572521627, 0.20291014908512786, 0.33666120784421083, -0.2923005769879322, -0.9043045493119596, -0.904828383780546, -0.12281206908806176, -1.0053474504753845, 0.6008446940809705, 0.7118720951809249, -0.27294181135173606, 0.31912844991914696, 0.2348020921928517, -0.563998516425465, 0.3619866787765266, 1.1297694250301504, 0.14381161327796158, 0.1321182898050276, 0.3692969316332123, 0.10064499837463278, -0.8193033586986966, 1.0396556737931784, -0.21721918009865512, -0.0327387449019887, 0.7042765102278313, 0.20389581448403465, 0.022923092418950575, -0.5871294681660778, -0.07095774399998497, 0.6257274546156133, 0.007711101666747705, 1.0372997984953964, -0.7908437438910686, 0.8772416540064024, -0.30820662412013794, 0.07864454019025643, 0.27851474141399857, 0.5631355369392785, 0.5797996786549566, -0.2649753853588726, -0.6034992901901846, 0.7079954138865178, 0.4003915065169712, -0.5822418784275011, -0.4907939652258426, -0.3655060332090923, -0.13993595990094337, -0.5848115977123505, -0.5972953376353576, 0.11453778008757926, -0.8346547554771157, -0.6368670386374454, 0.884656094835786, 0.1310021114011871, -0.16641434606449915, -0.029193796915433428, 0.16762741347058566, -0.7003401837102615, -0.3865659921511099, 0.8379649025216416, 0.9097345490195733, -0.5700939318188576, -0.46346414880257736, -0.8640893973698018, 0.6100942126202924, -0.4982169028028922, -0.5568645720431078, 0.8295192666576701, 0.8834252745102377, 0.17201216073142664, 0.2455618434421475, 0.9599719128528198, 0.04520230515340765, -0.6593047526788216, 1.0857335877560912, 0.9244023680274727, 0.9234413722879877, -0.04033536048266715, 0.7152490652216003, 0.34780137030656305, 0.45366413062260325, 0.9639290736880587, -0.6507926042251285, -0.4688178832582965, -0.6829978075152939, -0.9698178288508236, 0.9441623648740961, 0.10283630721269318, -0.7337192117015304, 0.7911981447136694, 0.6236594834813456, -0.6364297102994803, -0.6352961502802018, -0.05920179092395796, -0.3346505694954558, 1.2886058342252809, -0.5988694696056627, -0.2021193526157677, -0.2578283060480855, 0.17863722785409916, -0.15910404152719734, 1.0409114367886168, -0.7864013255425857, 0.9265290567538401, -0.4051190988060714, 0.559105888537311, 0.49925117260386787, 0.20435821935817763, 0.3565395102793187, 0.6964393707900249, 0.41006890571846905, 0.2732186831074021, 0.7213565026961176, 0.6308901744273546, 0.7401478778059598, 0.3065315150502407, 0.34001428530917743, -0.3855955505650241, -0.4869116359537124, 1.0111473886232503, 0.5795233189974487, 0.3266310713630679, -0.048092696978662246, 0.646995025326595, -0.0804470406828841, 0.09042099735692762, 1.0507440428359818, 0.6798979593264284, 0.5924626959980845, 0.26018785407038286, 1.0021776233191542, -0.7847642145256722, -0.6409828807118297, -0.5492618080118093, -0.7218433274981595, 0.9791206096646281, -0.671456188252667, -0.36380990181739087, -0.021940974261004113, 0.8904271973640642, 0.3973154608775286, 0.5811881600253067, -0.31554373614959497, -0.912909977886235, 0.6561448873241893, 0.8163863326533886, 0.8999176163184078, 0.6873355482490298, -0.2633173815546284, 0.4585390919258571, 0.5780781600264732, 0.03612871519867755, -0.24815784151565728, 0.26369000963116257, 1.1469137369679137, -0.545367669915265, -0.7162455162050089, 0.5063342536090781, -0.8313881694985226, -0.026262362472217412, 0.5400482963942658, 0.3404967821319943, -0.2034035706531098, 0.21320202284075013, 0.6129826933009042, 0.37359543381688604, -0.6387322426349586, -0.8068880073407656, 0.683542615710902, -0.4606680790428293, -0.9394708888392029, -0.27736959826073804, -0.3697198562514877, 0.23895499400202375, 0.04307992115852568, -0.3141480060453764, 0.4816308654832982, 0.6729942421631394, -0.9886024390828418, -0.273504298351565, -0.28094516167986666, -0.28054347002760166, 1.1060536004807286, 1.1480792559544801, 0.339577654995747, -0.06362446267242801, 0.9855370228248532, 0.8627680296543284, -0.22215317921176045, 0.5327269589374202, 0.014451669935835893, -0.543104127490604, 0.24238032469114765, 0.049350714378825614, -0.9113876492397894, -0.12754734090626638, -0.872641074850137, 0.7344581944303824, 0.9719263248208971, 0.7429943106967981, 0.12706164181042892, -0.28601839537478263, -0.8756419672005382, 0.017500632115709045, 0.5558095789919101, 0.4346766563538913, -0.0771331118160646, 0.7607692968208887, -0.7108561537326774, 0.16597900067858185, 0.29959290687491147, 0.08350683094996648, 0.5327343530832318, 0.5810715928955448, 0.6189378559322317, 0.6851349753684096, -0.6504420283524072, -0.8170753774607394, 0.4347213476366529, -0.3944731141317544, -0.40067185072863365, -0.283288910456746, 0.29524922095927847, -0.8332952883225623, -0.22249983471975254, -0.34082315287108805, 0.32110574147865695, -0.44900398081421183, 0.946719978641757, 0.4388779324353232, -0.023656136052419202, -0.3542126057671507, 0.5801195380959322, 0.4477988435593536, -0.5771246355622055, 0.2701689166342122, 0.1023886115441897, 0.5373676824680389, 0.4766999599118975, -0.02308402225729152, 0.9387198222845319, -0.6268556079740033, 0.15231554419568394, 0.9992442141360388, -0.7205739502708518, -0.7698584149031655, 0.9018308021739289, -0.24782489426732185, 0.2436661171359482, -0.535823283897063, 0.7423945112660627, -0.5092577685331245, 0.42796008307196626, -0.45479312420044016, 0.6809394759716078, -0.11510050211311518, 0.25148404133635405, 0.6619908073847978, 0.5056977643186873, 0.1268279322238845, 0.05888518355966211, 0.23093786312296322, 0.4469551089027563, 0.47980873902315263, 0.6412874488178666, -0.006890793581250183, -0.6241139804560294, 0.2937918585423301, 0.39980143831175663, 0.8067602843696832, -0.4414756401074261, -0.25442455145453163, 0.3316264174754447, 0.9865085597512355, 0.9194028250328236, 0.2644474313836404, -0.28428855030107864, -0.7517977256788172, 0.9167701834986391, -0.3303680502124636, 0.9905649933871685, -0.1757958444442551, 0.31509272040745895, 0.4990809546663898, 0.8099307778560179, -0.47382372231688824, 0.04451321535053266, -0.9667324891384593, 0.022731967047814796, 0.840332029956104, -0.6743079310677536, 0.9531485329379413, 0.6948179073784804, 0.860590697124822, 0.4673955530839179, -0.32370180761365036, -0.08363985884929208, -0.42163058541804505, -0.5215515709773102, -0.5150950605578495, 1.1349682664521972, 0.7996731083213402, 0.19286723945629397, 0.8324499946797944, -0.7960769723876081, -0.000534944361020981, -0.6299619524151977, 0.166913376232205, 0.5707175212454191, -0.09082023497566476, -0.1928043599023049, 0.23338808880294795, 0.3842562548037773, -0.2984765163609962, 0.6980026482708301, 0.46624370015467, -0.07742215558140267, 0.3460146741924757, -0.3011276617477055, 0.11537319315652045, 0.8963614063443023, -0.13156524761106508, -0.2816212379649463, 0.703429479329999, 0.9603394385429503, 0.763060241934161, -0.8001519538055945, 0.8617364251827312, 0.20560066197472082, -0.040929004206378926, -0.09861933891905407, -0.25861888634673724, 0.8564915758084133, -0.40331059734964675, 0.03914334195738831, 0.7499300843196606, 0.787464582117653, -0.7538439393702415, 0.4043425464472425, 0.5000069381647769, -0.8335704646335934, -0.32377073571584025, -0.390196719592239, 0.8006879101695713, -0.004926355579826877, 0.5162462829248711, -0.5711219805105863, 0.23923012877234853, 0.5356954895846475, 0.6845184814199832, -0.5222491792079235, 1.1331901152127248, 0.5221432349932338, -0.7195789607118265, -0.46391777821240654, 0.23467689033317093, -0.5013220332429628, 0.549833230705652, -0.10490645873177804, 0.9096942628764563, -0.6324104795240345, 0.9264957396446342, -0.610980549103709, 0.10373742980671444, -0.16582940881932084, 0.25087239870829126, -0.1418721679843823, 0.5966414320877793, -0.04770386924583469, -0.3088207221015115, -0.03153105983630223, 0.4486232380225896, 0.020674127822000253, 0.19504678500740055, 1.0086289804268689, -0.6519525763991515, -0.506636171647117, -0.16260289493579583, 0.8200781550430021, -0.3823985642826622, -0.045715239157954765, -0.5772849151413026, 0.4692417788737726, -0.3362480780896896, -0.768997670089465, -0.7026715660598694, -0.10928413388346109, 0.3357376753344075, 0.6802945802733711, 0.63321508359807, 0.3495559557730817, 0.2501752726861061, -0.7736283315045916, -0.7216406141243443, -0.09906125641342255, -0.027126629320211395, 0.8193542910821995, 0.24147956109509228, -0.6342652680666233, -0.8728014115988888, 0.8439906113536072, -0.3392918778116057, 0.8654426279072827, -0.3687107587284285, 0.7051710141395666, 0.877606496260235, 0.1640617187984076, -0.461207586554228, 0.40859843450225414, 0.8984365648175368, -0.8446440486648634, -0.5282804441580676, -0.7172428643608577, -0.21187425225555512, 0.5704030645777137, 0.1353543322291708, -0.6926807505306496, -0.3461252030135195, -0.470515146756051, 0.788446881743029, -0.6783532197018356, 0.5351307812330509, 0.3778211639110566, 0.8605097538678937, 0.7481690573840396, -0.6443677205252798, -0.6661451304735092, -0.6248473889329396, -0.5162031808541045, 0.8872910117165196, -0.3648601323032656, -0.253160281960957, -0.3367491734384035, 0.5828075542407027, 0.4749361035298577, 0.9306749604178193, 1.0054773393128136, 0.5895959848543777, 0.14812174337981612, 0.5056818976547353, 0.02817905035929091, -0.050314063617446454, -0.5467088262812937, -1.029886730844669, 0.7431444242508275, 0.39883045611886786, -0.02165742530592819, 0.8522013070622059, -0.15162757401956628, -0.6738112891873729, 0.27636418486385134, -0.45946899208997655, -0.8257506970615296, -0.3906047396861025, -0.6798958854473838, 1.0818587453481567, 1.0648035833843423, -0.4068615825348682, -0.5573894664528684, 0.33206649843345254, 1.0532693292508826, 0.13510823268107044, -0.3467830432738789, -0.5144043441710177, -0.6628390323447433, 0.4922026911209556, 0.2843460532407008, 0.9332246396439355, 0.03980594396042602, -0.26867243785445094, -0.834935114974397, -0.27757041124425824, -0.7264999483333799, -0.3302748121290112, -0.1345334516531169, -0.4629269454105993, 0.950448369091895, -0.9811405293673101, 0.5625635738410764, -0.9661204385530825, 0.9402656180020844, -0.3904279527821097, 0.7619109263252297, -0.22965984421091074, -0.4616246292268666, 0.6774114056565624, 0.4344721594472267, -0.3714119171249927, -0.576924943587765, 1.1762425624955235, -0.10137134267619366, 0.7054614135890235, 0.2560370166362309, 0.18558906831745509, -0.96307615482178, -0.01825440840175548, 0.1531206003534202, -0.6106899248263311, 0.38643113156433984, -0.6323191565281622, 0.04704054468509292, 0.573680734150353, 0.15767385519535793, 0.3382997723955423, 0.17684742710659385, 0.7395049530580289, 0.8450154077358598, 0.2993680800045314, 0.4094961350289653, 0.580517171930249, 0.40792862620197534, 0.20542483410362866, 0.007195952839680347, -0.8157573166110045, -0.29698608581923486, 0.4717297565708761, 0.302161387279444, -0.13610445096499485, 0.9128074581510431, -0.5358139724419138, -0.1307102008792336, -0.13995487625861364, -0.009071684779492007, -0.6762798800232142, 0.6677094380433202, -0.08997303652221247, -0.6339094736133822, -0.3474367007959029, 0.7651704874775465, 0.11945471345160857, -0.7559583290047035, 0.38856181583811056, 0.44661181739143707, 0.11278307264237108, 0.44998875240941705, 0.47832782390785067, 0.1791231028282733, 0.8284091358068005, -0.7348687063226783, 0.8319403847990443, -0.7308913015707036, -0.28655839454354226, 0.275204218096385, 0.5735052940671771, -0.5253053644792363, 0.5756765461020265, 0.5547074178047811, 0.45200397635637657, 0.7598029191747325, -0.6656181127296263, -0.32224875668437286, 0.317644630883239, -0.6002951183867271, -0.0913144942284969, -0.7613841439036831, -0.6559334216701329, -0.28360017766987616, -0.2940385459221951, 0.5954717263981315, 0.2018648651001831, -0.7888114950218892, -0.8926291160486068, 0.4311685907704432, -0.9207632228803904, 0.04681876261336435, 0.8062602505193153, -0.6431415400977342, 0.3713686111810056, -0.9180070373559707, 0.2579791999367302, -0.6569802004720312, 0.43044605000246877, 0.8090780758440765, 0.8825537617952202, -0.19655235811481517, 0.3089295846389431, -0.7885414409923223, -0.25968500417281754, 0.2303731160594175, -0.013915920481136115, 0.20567216612816092, 0.7361908566510951, 0.7074947193017351, -0.07438454039819813, 0.36128751733006914, 0.9853971802408708, -0.9775982391793239, 0.40943953039606207, 0.40911000718667, -0.21500906387099072, -0.8182946472025419, -0.6560480647608433, -0.23972092704343795, -0.0718736623330618, 0.8028102955304399, -0.5504674734180808, -0.9066814062771256, -0.05021605647929728, 0.06953947014586159, 0.09001187533211685, 0.16894287007940176, 0.92517113155665, 0.39629192605907554, 0.8416463453101378, -0.06001348570911236, 0.7948620668692234, 0.28173527510353225, -0.6855730663368993, 0.34788857792856276, 0.9638762705853838, 0.1966322730250456, 0.7203487625414795, -0.22784964581216793, -0.7566157901825596, -0.023835777854209095, -0.7604090505590693, -0.49403827235082987, 0.21202046693366472, -0.4746323690725722, 0.6271272295056272, 0.4112769852472359, 0.8324188028548511, -0.5806603057842524, 0.7262450991670318, -1.0285168658063093, 0.7269822044542592, -0.6474647411159048, -0.7998750657264042, 0.5241032492883778, -0.23092838540395144, 0.877843918982896, -0.4343863772795964, 0.018203400015172018, -0.04198515934971516, 0.2513537530432257, -0.3114613826716824, -0.02327618279866385, 0.38213461617800487, 0.030314765705517537, -0.4636923303360507, -0.10275602979906373, 0.6389340091325342, -0.9780656002131989, -0.6860952587997311, 0.19303862535053962, -0.2903872640446161, -0.18788763244961512, -0.047837742614866355, 0.5536458687912794, 0.2085523340607971, -0.8031068473137364, 0.09363807932133797, 0.050523294172282456, -0.8758871001443818, 0.40124042073621896, -1.2315061907705116, 0.5392422406383542, -0.22858207686702225, -0.6485244995145741, 0.7965855744805241, -0.5207709158732235, -0.038442929223364945, 0.453122895580224, 0.7425222663653132, -0.8373823585216393, -0.831688481029884, -0.3157527424322028, 0.099187583058056, -0.6884642252275145, -0.36650490906086863, -0.7298888004134527, 0.6530056331580039, 0.26667777533083936, -0.28336847195986636, 0.8554896012074157, 0.5464010067569278, 0.6783173157033261, 0.9750809893236402, -0.007985137315561995, -0.21682507345982918, 0.6209225672868599, 0.9835505541957489, -0.20339509081986906, -0.9037600484103361, -0.3436364682089291, 0.41611234277002895, -1.1809304350901515, -0.5717286808139469, 0.7351003859513224, -0.5500793488217436, 0.34929962124352687, 0.7827927012910855, -0.2600417343746591, -0.09848451037669109, 0.40655872185002023, 0.07253696993673044, 0.0316315767312829, 0.7708488908418042, -0.3837986605625213, -0.8617564680022816, 0.014876877376736708, -0.19658251147757447, 0.7501542019526707, -0.6236478270658197, -0.9189087928578222, 0.850270969014462, -0.6844365666883213, -1.367117304584822, 0.21905865825848325, -0.43115107545194736, -0.6821842371540556, 0.2724223766582425, 0.0017491060577267408, 0.6275772008148145, -0.2820521082075187, -0.15175045353089625, 0.0284845876190293, 0.12634074434685807, -0.4462857876255037, 0.39852372312869394, -0.6505684209604605, -0.2167253529326916, 0.08937798837114976, 0.7734825369355416, -0.4930150247165495, 0.5218334696830051, 0.607345746131333, 0.07250101008060392, -0.6237143439657573, -0.3633417542364945, 0.8263699544020888, 0.6484001701176976, 0.5525784814873282, 0.2920120420004154, -0.20298030323895397, 0.356903120214101, 0.4445304244469071, 0.08869359319212, -0.10735250410478164, 0.190650205605454, 0.7773907638812128, -0.20815297378853895, 0.4856041762035521, 0.3440373042174216, 0.39602618393610867, 0.09523866752138084, 0.6504103967021791, 0.024764077810760243, -0.5238911497816102, -1.0367209866598739, 1.1444073722188277, 0.04392587814906248, -0.24330520848907025, 0.038883706654853266, -0.8137332139933051, 0.49280434089134945, 0.1504169578880883, -0.18470283018522768, -0.47262175292421355, 0.4679725986749673, -0.7539667541179663, -0.7364658756183069, -0.17741916004288108, 0.6857253318787028, -0.48315831582758845, -0.6809602605290823, -0.1855781521824136, 0.23854461980194436, -0.7659255318041436, -0.9455465878023018, 0.8541035578792612, -0.07953445146684003, -0.8525128509789905, 0.1497160235498767, 1.0340699661053412, 1.0034256254972127, 0.6565035740573804, -0.02250521709762281, -0.6791019779284777, 0.3470456930978829, 0.21703944768338884, -0.4701311204375883, -0.6805115870141779, 0.31359126229794954, 0.9459430580307944, -0.5374040438269699, 0.25524996068697525, -0.5294658754927456, -0.6518234144788324, -0.19012403420534135, 0.2545266251656111, -0.29020242691905723, 1.1243109551249761, 0.647679149940545, 0.14252128650355614, 0.07353024799464365, 0.38899587266360436, 0.5802567502539349, -0.39365865542454115, -0.21933818714963296, -0.008086027143243588, 0.06962296332304287, 0.09717825473773212, -0.2495792275984879, 0.7352265526069818, -0.004876414917119315, -0.29621884806991894, 0.3374761941524097, 0.2098495436602801, -0.0016592340103344328, 0.06586076309189368, 0.3567929636537609, 0.3918502509871527, -0.6336817920780013, 0.6219645413439133, -0.37798694735721783, 0.8320057208501455, -0.4949211518485305, -0.42258262956683684, -0.3724403123770621, -0.10236417224525082, 0.519615696694464, 1.3350259718511543, -0.44408929442630407, -0.14791228542888984, 0.5051994335558387, 0.3736695857925949, 1.1000340161176623, 0.3617491759873841, 0.1440033325388237, -0.7824354973226112, -0.9622326419541274, 0.15921342376928538, -0.6196096189167898, 1.634269690592886, 0.5416226572134272, -0.7775814323574314, -0.5922164230819483, -1.123765462818009, 0.012706678626483302, -0.6734098394323902, 0.8860777859868414, 0.17265994499675635, -0.007415144420399842, -0.5840151590400381, 0.39538710681270023, 1.1612336922797286, 0.8705909200284941, -0.20237135502266826, -0.36615300564274184, -0.37144096510440994, 0.8588855434369272, -0.5546847603533965, -1.1780680739804879, -0.7235219834029734, 0.29428316949577804, 1.1388254471999502, 0.32540325474715004, 0.5525883465829596, 0.5225396063124765, -0.3118205923585938, 0.9535049780890241, -0.062444929539578524, 0.9730543310048548, 0.7528443254339839, 0.2284492867661664, 0.3383796069068655, -0.5231843386616613, 0.0976579774394661, -0.8971798632482679, -0.2475371531363121, -0.361577689465803, 0.5990453678689973, -0.11923278350410757, 0.2502301147792215, -0.6134351366728718, 1.0626377385110675, 0.21699948043165568, 0.21064718518517392, 0.6092391417430872, 0.7586252068981515, 0.03750415236806573, 0.5830101119422322, 0.05594213973706496, -0.17679369647350535, -0.38821152817922777, 0.07472305251177432, -1.3839142156950095, 0.1560188691264624, 0.38138905925735117, 0.9314991083226805, 0.7021059744424993, -0.52919650729346, -0.07118262391680814, 0.4718259415984488, -0.20893135479833314, -0.8783173898356414, -0.12235140890140414, 0.25299223073738913, 0.4403049428005092, 0.51046090522231, -0.7265962839738851, 0.5794259420349768, 0.04112778763410959, -0.1373677257325913, 0.10712854382797762, -0.5115739728845725, 0.08670158282737014, -0.24660518028928102, 0.4396605227743807, -0.4107896382535762, 0.24901061191203427, 0.6218700482943823, -0.13857344953953557, -0.07080245692064244, 0.18656868604749863, 0.05164178332622967, -1.0081259962542741, 0.5498169815936313, -0.07502364157328559, -0.2011724527023292, 0.5783615051941118, 0.4348010838234849, -0.26260201786682025, 0.835450076534448, -0.9658877806445706, 0.6458455768561296, 0.17409116563888813, -0.22209984884240347, 0.1706190609684615, -0.42206930844814944, 0.7495725034181171, -0.24107196091315755, 0.09239129265662817, 1.5454133117401272, -1.3143140880206545, -0.09972473057888334, 0.19619174750171472, -0.6150980784174491, -0.508505063956881, 0.3464860575148007, -0.44453432736980114, -0.34531056528453974, -0.32054773940907866, 0.039600273795317664, 0.7420912848250981, 0.8708670746719854, -0.8506731562140117, -1.1979976806832768, -0.4758403071397228, -0.14232629168233496, -0.39629505714657565, -0.28892910804506966, 0.6284377296757407, -0.8943239453038424, -1.2319206606530257, 1.0576453089747433, 0.6458155838988165, 0.08408463426280313, 0.001126790537483445, -0.3105671069834688, 0.14747535033559625, -0.301043619169696, 0.1664034354642814, 0.6645199529596059, -0.9207683882763947, 0.18903196061263963, 0.8346920089079213, 0.4832250084655107, 0.07632042843984221, -0.010857206726910606, -1.0789327621185762, 0.9732019834945279, -0.024357869122859213, -0.49788244323693226, -0.6928625621013978, -0.382942623172489, 0.6687487879809203, 0.6587498446977768, -0.18816532834042832, 0.9069635533612912, -0.4983586499540335, 0.26464242654594705, -1.109715249168525, -0.6442173019000508, -0.009480307330715303, -0.4664092038728577, -0.15269576446104513, 0.419873334603352, 1.320589923593483, -0.16783196049837773, 0.18530196884034397, -0.32198803551185035, -0.6830244068223883, 0.4733829332298325, -0.3559542495745814, -0.2833801490283102, -0.21269526292086294, -0.8241598174412249, 0.23149664047982363, 0.32918334169890995, -0.7011539433930716, -1.0356277008885613, -0.449782256604576, 0.4970530781913186, -0.016275843773202476, -0.5216990174538384, 0.6120491428212816, -0.38816825142422845, -0.45396967473407834, 0.12150925663363535, -0.6195852432035723, -0.08940195247006598, -0.15097688459036518, -0.3371667148616782, 0.6552368117950383, -0.23696459851601626, 0.5887234564159433, 0.6002171086197576, -0.14735700108638503, -0.012159126210929766, -0.6354539095617591, 0.9978949988118611, 0.29583881339493123, 1.3135409873219241, 0.3512640533421412, 1.3861281487245836, 0.4501229950149257, -0.1340107104865633, 0.3053735614512287, 0.002785300608627371, 0.08145605158474696, -0.23505993591446395, 0.2926488092979378, -0.2702467541922534, -0.32812710581600724, -0.7935243851381535, 0.35780647711686536, 0.5471102915225944, -0.44887829084332737, 0.9500835346413518, -0.012705629778990299, -0.04303848960061443, -0.9853200584990134, 0.7899736563969441, 0.38685104102317347, 0.047843650720927104, 0.6337691579901436, -0.09082070151728626, -0.08052916375717015, 0.3358692413268406, 0.4673684535737602, -0.017388265209191484, 0.10062925300146905, -0.6814856778362381, -0.9376895777939493, 1.4898500239267394, 0.10212837731731307, 0.09658669405148088, -1.4244796627093537, 0.5468006217855363, -0.2201909892255956, 0.3661772978615284, -0.8993675683755579, -0.08940972905173683, -0.20697038758330913, -0.45616496913215165, -0.3537955491631236, 0.39354872875882146, 0.057974224404381054, -0.812957465449601, -0.14329235939491763, -0.18843602057673411, -0.6061037908688152, 0.06013658465587857, 0.0115837266202627, -1.0467772714518184, -0.11823823978594375, 0.24399659172953012, 1.4875794518048622, 0.5967000947728623, 0.17159350908874652, 0.18201615480855549, 0.5896912187826714, 0.29413107736844907, -1.394349291738521, 0.525095070767349, 0.058989449049162195, 0.8243129638003281, -0.7109640192434149, 0.35511772301064026, -0.8875514051747324, -0.4094907947829667, 0.6770949187797887, -0.08661126579504448, 0.5546722634661345, 0.7109765866278834, 0.4466523218750764, -0.5617146022512084, -0.3991809333783752, -0.43931431850604885, 0.7516731654579526, 0.47800849782811333, -0.33663846813132864, 0.16204360686168573, 0.5673362633627651, 0.823884148381542, -0.33777416894202533, 0.7213394057844447, 0.27020792716687037, -0.193993988009633, -0.49828813435176394, -0.7057597577064918, -0.31969671776897485, -0.6998163091109042, 0.028643656148928727, -0.6780388668688624, 0.9831748382342805, 0.7239644835736776, 0.8064515917824001, 0.32172811448721295, 0.3614429871740051, -0.0329340350402284, 0.5514697026250835, 0.7217086808963111, 0.37134917674350976, 0.763402850321355, 0.2586518419996406, 0.21734836617448158, 0.5374972867470876, 0.04226598258584263, -0.40004745168703015, 0.3590404662991678, 0.46011484671917496, 0.5115945022787202, 0.5318587498440089, -0.9730780213212349, 0.50690291771641, 1.1674188510577, 0.7444761020528119, 0.6500630894434677, -0.4211721890681428, 0.22311559978811235, -0.48276867156055897, -0.29730957650905, 0.5447184368445049, -1.0901913182173995, -0.43486538236777683, 0.8268114779068072, 0.6078237469704969, -0.8917493779219101, 0.9943658138524429, 0.7927273099186671, 0.618580223908437, -1.0012433067435569, -0.4953464693605379, 0.025546620360138928, 0.26284620047436474, 0.16624603503035484, 1.0877347054387079, -0.6341052528007147, -0.007171877622179689, 0.1514344916272007, 1.2362617412760617, 0.4369658544136519, 0.9222918348250913, 1.3439740396853868, 0.20876313859753687, 0.7789866399436443, 0.2846770644922007, 0.8292410052335851, 0.5900593318049364, 0.4675958294814861, 0.7189301751005908, -0.1084377051436503, -0.7844760763832609, -0.7634946946787938, 0.5280979061826395, 0.6248502575395997, 1.2812715640475736, -0.4894481924688586, -0.6077834813774087, -0.3711055496350208, -0.4820188243823987, -0.890487123117122, -0.14287808059019458, 0.9421630469236086, -0.58959240076303, -0.27414587059633855, -0.05172279982308299, -0.33912967587875437, -0.6676672678407316, 0.005406469453813157, 0.8081176809862779, 0.5352957268588199, -0.36488455022705757, 0.8637266597606662, 0.945030763742182, 0.5527447405915809, -0.7377901317693754, -0.5991082428713068, -0.14959168952694687, -0.5591565466111754, 0.3164799471653055, -0.3436613466187889, -0.8624534559702438, 0.563513224519097, 0.43421368838991065, 1.2213812723019994, 0.6730282036907389, 0.9983581708366052, 0.41601370578806557, 0.09308169754215463, 0.8505582642126045, 0.03939226726249659, 0.14453660504505136, 0.11180448914963409, -0.1260517986795304, -0.3295264494876551, -0.41962628485860715, -0.333309264599317, 0.2086499918481987, 0.3297551827733891, 0.06705771727243152, 0.059347487037728144, 0.4895527542147473, 0.5534018762826284, -0.5749484733778026, 0.14715590241135548, 0.3968023180574801, 0.9454961025763323, -0.6247321109859449, -0.7979187056014039, -0.5834289532540615, -0.18596711834778382, 0.11203616820365508, -0.8945577472649008, 0.002470779927029327, 0.7214448208352017, 0.1295402678665046, 0.09626898372957275, -0.25862914101004136, 0.5254393401110496, -0.03914335896584343, 0.11135365314438807, 0.8310155738324664, 0.5450229307195815, 0.21841471967158824, -0.008937388692416427, 0.39834095391071245, -0.8926943431119951, -0.7089857915653798, -0.24256596067683786, 0.543381907715027, 0.4130427117292241, -0.4840308040639499, -0.17259390482648088, -0.5784954232923061, -0.892846806873474, -0.6331809589397657, -0.09574554280477265, -0.5195032851931747, -0.41142019130244506, 0.2774329781093712, -0.20803983475171145, 1.4228200404314333, -0.6154983552577542, -0.5877127000518929, -0.5003370524492472, -0.24441950045471575, -0.1633089007273772, 0.5932903840767892, -0.5821169934918874, -0.07258748501537413, 0.6381807552646014, 0.6394243068179484, -1.323780906667521, 0.11366475765423101, -0.633109755051752, 0.12786134004672334, 0.7882067937528715, -0.712560017493853, -0.41836390629297815, 0.1841397884540554, 0.7968701496588562, -0.45257130878970725, -0.14299398606678243, -0.4811863714249449, -0.05235327676137125, -0.36982491096968606, 0.7712637596580555, 0.9555008392228951, -0.3900747968422646, 0.4419858654744168, -0.24574769911435104, -0.39980379346336903, 0.1333490327405434, 0.09125252319720753, -0.3937312532873404, -0.8874967711020727, -0.6103614087412736, 0.007020444656250722, 0.4986073330971421, -0.44130540534352525, -0.2395344438925296, 0.14827494882363132, 0.6561194202126798, 0.10822017341894452, 0.5100202693924352, 0.08160232661178901, -0.36407649446162, 0.05915101834807622, 0.6502776673366576, -0.5306764873247064, 0.3011877720068857, 0.48867283001586626, -0.36102348755726177, -0.04614166728298352, -0.7169583554497572, 0.4773644917021945, 0.9670264400717954, 0.6152454590545893, -0.28322379561641825, -0.2017662736990509, 0.23684321652050316, -1.0949875517103755, -0.16190296688721256, -0.07417268211308486, 1.1235405819772257, -0.4566758415022192, 0.9879271268981533, -0.13251374358982584, -0.30505088737223246, -0.05026649853283785, 0.17754009292255635, 0.3604787712021617, 0.5252180808371452, 0.5544371686157794, -0.10470139020948645, -0.6984989860446135, 0.7997731100597032, -0.629993592009984, 0.9251033515321578, 0.1363201926016775, -0.426061934004927, 0.7041982592437761, -0.21634434243726108, 0.8499008183982997, 0.5123654608665508, 0.2565946942400085, 0.26539589242445066, 0.7379048129020931, 0.9048775914058814, 0.9419656827063558, -0.6236883782302177, 0.7672710942422871, -0.3589775806893306, 0.1632040243362638, 0.4485590558033059, -0.39070796106769246, -0.2414702110174841, 0.4669523473195963, 0.622620070692108, -0.49945471868251695, -0.8286116234929547, -0.7382971275513112, 0.3316300150630461, -0.6236447729192396, 0.9739909139522669, 0.5998645754352845, 0.3972482654589182, -0.27376994219053463, 0.12714544636365543, -0.7986332228926853, -0.8836896014603697, 0.6601735059922993, 0.5788493804543726, 0.7979412603462821, -0.5584128568685334, 0.3651133363549697, -0.21232565935123415, -0.3263934052440962, -0.36175294067599606, 0.9939972971973507, 0.29787234663283324, -0.742498712503009, -0.14063126888349342, 0.12402706883945941, 0.5152029960527789, 0.973678219773624, -0.20799473101384858, -0.9517412149423707, -0.0024923209630050014, -0.28454057053914084, 0.19137482955445928, -0.9290407895778179, 0.7319876608145659, -0.7772739959276911, 0.46953538774801107, -0.6824661139215964, 0.43043381276080495, 0.9749618416984966, -0.527870189833499, -0.0839751396388444, -0.2023448109463004, -0.7143018871541491, -0.6836903383903941, 0.41316155329883963, 0.5899877369527153, 0.5251014114614402, 0.7681265322910702, 0.5196598105906741, 0.10131632807162927, 0.904433483323547, -0.14215514912257227, -0.1779975321228009, 0.1423582099099544, -0.03686531881867706, -0.7049167576225608, 0.311394617611344, -0.16643295272616565, 0.2965688781528903, 0.9371642921382254, -0.09395865712080913, 0.2228670237899173, 0.8600719413582043, 0.26339034824992114, -0.454500655530242, 0.14243068944053872, -0.48260501122283106, -0.7606757732120948, -0.4588181314299445, -0.991702107610446, -0.11803658423543957, 0.3433267042204998, 0.6575694190246093, -0.4740835629534298, 0.7000847662071678, -0.46068844660265607, 0.6602866142093298, 1.4342201785887492, 0.9471225474631961, 1.3250313725566705, 0.06879205806764463, 1.01756853634223, 0.9894349219653914, -0.006568483142338697, 0.2265358031962222, -0.009013813129089996, 0.5766781608141949, 0.10234415987273399, -0.5524569545439956, 0.8298867572245864, -0.15746574668061594, 0.7033451381271438, 0.4135335879934421, -0.30989671583133815, 0.07020033109068913, -0.04260481205654912, 0.3996916667138367, -0.31639039410518965, -0.25668374295650814, 0.9936176760011516, 0.052937085300637725, -0.5985626040628785, 0.92771464621609, 0.7417699787744472, 1.6106253598111167, -0.044488730450554105, -0.709202286726334, 2.3004775405900006, 1.766684079680682, 1.7078110307757577, -1.0398224566297767, 1.0170013664603388, 1.0861932057895363, 0.22750048683618226, 1.023403604309173, 1.3366995023906707, 1.3475942390492646, 1.2084410765699813, -0.028949518220988055, -0.015876267692734394, 0.8490092267584666, -0.33492188276650237, 0.8081910027633645, -0.6165279495603224, -0.6300051951943679, 0.6967903038089233, -0.4407822634102971, 0.10905542265002294, -0.2977797379908977, -0.0954234976637786, 0.7811048449291208, -0.07676617879094658, 0.6138073491890795, 0.7987348618116965, 1.8517230689953277, -0.3614462555542324, -0.7833963098055263, 1.454526333997415, -0.36808185370564345, 0.07552577959844041, 2.3924232935926133, 2.3533468299082947, 0.6331287856655695, 0.25816617630339556, 1.9600644067904511, 2.0305962972539886, -2.389610226230682, -2.334775535897562, -0.3286266972258325, -0.7838974061028683, -0.47691412863102944, -0.29383442808940496, -0.9257752752567613, 0.38158011232350414, -0.2647919306827026, 1.1204205146113604, 0.9683211987907773, 1.0598969068693054, 1.3265586251680586, 1.3639141775656694, -1.7225013833910068, -0.6354972170975839, -0.803047784355719, 0.07433417231641139, 1.8871326627325613, -0.33006383808080003, 0.3395316818662542, 1.4898302111682387, 1.7628106371556416, -0.30047567063474534, 0.04492861034926614, 1.9510908588331306, -0.06255209622268743, 1.1472627073829, 0.7763480258364771, -0.7717055674321638, 0.9293241070916947, -0.8285968279502884, -0.8465773031024441, 0.3124843333063654, 0.9607506951613444, -0.8015887043331983, 1.0342187835634404, 0.8406486161981086, 1.4140711222896543, 1.4605677998139028, 0.3493302207522826, -0.8839480705055157, 1.4427752323888539, 1.887038601536108, 1.1763293788034592, 0.5931739784945185, -0.40157371281121296, 1.801077654376009, -0.042830137790368705, 0.5524511515175045, -1.6545000643176262, -0.9518195070686041, -1.9423869716096056, 0.9313838410373134, 0.3126554783842267, 2.0460904280652055, 1.1743952192172757, -0.44560528457016413, 0.23267969092053664, 0.7520426587189544, 0.7734161062680501, 0.9942018198131009, 0.43436946338324545, 0.7650380474873099, -0.05614006265702759, 0.8254294215808923, -0.07421010475070636, 0.026341626904889812, 1.5152073362459895, -0.606498686196894, 0.29175287760678265, -2.476509966692516, 0.23780993431048603, -0.7661809121839007, 0.7616626143035391, 1.7739157446544545, -0.6272715785631214, 1.1362053919754405, 1.6838908143022622, 2.1683068866130104, -0.4218102925625339, -0.661607847855968, 0.9501156287855176, 0.7478680942715631, -0.5408396402593217, -1.2998720137168032, 0.21662112641981604, -0.373448257038078, 0.44797815279242054, 0.10242302991592417, 0.12496530936006667, 0.4590382945261884, 1.40695806156566, -0.11464738729576673, 0.10732485917777657, 0.3026289680237689, -1.5496244198722051, 1.83854362972456, 0.7281968014280525, 0.4045217078680205, -0.9146193124036333, 1.222898543340693, -2.045329235425871, 0.48390207425695075, -1.292569758289236, -0.15180302507021157, -1.3042769088859143, -0.6528386658630105, -0.07222070260996591, -1.2382313213677252, -0.22999515316573368, -0.8497296927312888, 1.624513285183352, -1.941780503592381, 0.43525987115728687, 0.36597272891611843, -0.7731292090991015, 0.16208829471320343, 0.41150674306194585, 0.006448928196941544, 1.4809120006390504, 0.9610056821081965, 0.1392316300157691, 1.2456848642508929, -1.2407557606657305, 1.233608797776534, -0.6883590170246775, 1.36323375406205, 0.7236782226841315, -0.5970710425373246, -0.8328407060210324, 0.3473159294404758, -0.8230736089918106, -0.4845440700789163, -0.8835237806863411, -0.9517592536545384, -1.863795729664755, -1.269616862934777, -0.9029450162209864, -1.6462908709232071, -0.7174394148560747, 1.1193071898733464, 0.46118244102738654, -0.586931347578649, -0.6644855042069017, -0.2550897355457241, 0.9073175329261083, -0.023435127833608627, 1.912808101684937, -0.10175379402718226, -0.0685208804779483, 0.5024075375575632, 1.2239665554173, -2.271331779369481, 1.092888834001824, -0.9190146561121123, -1.2549235157392598, 1.4473085322504713, -1.1085739101759315, -0.13941002710531436, -1.3937546605873956, 0.2099234665317322, -0.14077458828176714, 0.5088864896595318, -0.19886402745085952, -0.7095950233835565, -1.5211155379133983, -1.9116427210900189, -1.2006911432748062, 0.3670917341556976, 0.5818333511197011, 0.8426074367233082, 0.9489252331860882, -0.04615608742586336, 0.4365289489264188, -0.6792274922141084, -0.0368120600391784, -1.2139572409264117, 1.1641176294769424, -1.2850401401576417, 0.5436062530819972, 0.03762461384206175, 0.9309102501208553, 0.22041043266109048, -1.1340668858194982, -0.3399935965988124, 0.5146682775502648, 1.6641203838469862, 0.9875821648806002, 1.0116573829687225, -2.255861494891406, -1.5520963114390571, -0.22592270045714025, -0.9530670092047437, -0.7577274079239382, -0.7199215325209737, -1.469343951273443, -1.2017436998045605, 0.1187594791742365, -0.24097129514050097, -0.17284357690515068, 0.7231776831028913, 0.397386202782678, 0.37800241822844927, 0.8923574084536496, 0.10593552313017618, -1.6763641517920411, 1.5111453540565858, 0.047977914398751306, -0.7956642083144464, -0.5772723982533055, -0.3487139430153769, -1.1477876606871749, 0.8567595716436196, 0.6031869850534493, 0.620057940269293, 2.1007620961090825, 6.365932695140162, 7.268880836178876, 3.5786085400170395, 2.0732731338384602, 1.8070557356662489, 2.929270784833818, 1.3436294903736952, -1.2465256771556175, -0.766004360960138, 0.5778711073329564, 0.5009666475273458, 0.23189172667894017, -0.4148715360672965, 0.011283265147393175, 2.614782074188697, -0.4919437655137829, 0.7774978658675856, 0.14112181257687326, -0.17454370186150295, -0.6400099125460867, 1.6890499425692618, -0.7295009295778515, -0.19333203143928318, 1.2520537687341886, -0.21211348903901026, 1.7620816341098302, -1.3707996615733211, -0.4866781258930334, 0.14854486725503138, 2.3487563906421216, 4.826919722919645, 4.400952626161599, 3.4935553971680884, 2.6046142791081883, 3.1519039230142303, 0.9212341628251084, 0.7737072086713705, 0.20340570515135248, 0.31891994999617723, 0.8894955278148214, -0.7749596691790017, -0.35094611946764287, 0.0571919394042206, 1.0267208985748784, -0.693863877439312, -0.15879073651731423, 0.4947758431025123, -1.2720224671601115, 0.08427875830885742, -0.7976895572453326, 0.07536537366916017, 1.2610886402224157, -1.3370843348414556, 0.6524790911663931, 1.0557734357838457, 0.4833308943295464, 0.2285759365801819, 0.34160057726953047, 0.4095367497604097, 3.3711130292431566, 2.697957205977912, 1.811164966685298, 1.0220752864010327, 0.7308969774451677, -0.5314696078344182, -0.6930800578802151, 0.782870190379994, 0.7052634652919765, 0.8083513588707015, 1.349908555586803, -0.18971320121491164, 1.0057881952084462, -0.3629799046440514, 1.6150935752965032, 0.11565557069367806, -0.523380412373969, -0.5102942653970293, 1.5343937322834171, -1.4916915407918627, 0.5275398590062104, 0.1417386940238696, 0.4976335313161344, -0.4008571448244149, -0.4373531353547471, -1.324971620408816, 0.027634214832258055, -0.09307966833581752, 1.662849508689043, 1.7401611912023598, 2.2250064886104512, 1.0689559334001406, 0.21401480738794693, -0.6542987227665338, -0.7831091972833372, 0.14378464238430158, 0.5577575169408684, 0.21513533038949548, -0.40376728898710185, -0.07074791084478621, -1.6548120956464858, -1.3184428079724888, -1.3888235629536627, -1.8816307314743468, 2.095567546557837, -0.9944092737357458, 0.6661645730968843, -0.4559499410205441, 0.8334464876501604, 0.44099602816383837, 0.7313557371403426, 0.395996824854066, 0.2809292996846126, 0.8673851491205634, 0.31694438996689067, 0.03447695300525124, 1.2858439336726297, 1.1103894759306983, 1.4094750235571287, 1.547280176418782, 0.5514886167826769, -0.5090997320908714, -0.8855422805533528, 0.40634327333176934, 0.3344712529406968, -0.3519948537327908, 0.7308316656104363, 0.6179926709716986, -2.161864520022497, 1.4571616747747305, 1.1446584482567919, -0.840003606229511, -0.5097240198962694, 0.08665853965324875, -0.12715892834200293, 0.006489061244335714, 0.7872262452323165, 0.3641525116286536, 0.19012000663235737, -1.3730651788284862, 0.49350502295838666, -1.3541428371045976, 1.1644033738972743, -1.2605527143171755, 1.2138397093570543, 2.063150688563002, -0.014100806918924088, 1.2489552019645807, 0.7084743637365261, -0.23735832556160535, -0.6694309582623481, -0.21546988651230053, -0.45846435021240173, 0.7162277082846823, 1.3393516860770769, 0.45767775014830603, 1.332338955517778, -1.4743877577967854, -0.29008933454393176, -0.03325495997779168, 0.08120140341903354, 1.0613603676014987, -0.08397533944866727, -0.9242341528610556, -1.2203961179269733, -0.17135388382809424, -1.059077575815743, 1.3549313181115177, -0.22576466490197294, 0.7671889166271572, 0.36187343871090366, -1.6156181834754835, 0.2709887749758647, 0.18259959942480683, 1.429300606673179, 0.12390886732513288, 0.7346925708383288, -0.7199124949446524, 0.04262457456354257, -0.3135785382533121, -0.094019043575656, -0.11415430811757048, 0.5465533054911158, -1.229588600980564, -0.6331449315606527, -0.27491228216371993, 1.069465529556391, 0.5590577737634549, -1.3040301897311712, 0.7210457354088763, -0.6847474568502039, 0.7535888623704816, -0.8866347136095583, 0.40241678106382445, -1.088687115801637, -0.3867262912772373, 0.41584017855744737, -0.4525290941203233, 1.2602779623903828, 0.0654375426185905, 0.572507409199514, 1.800019315006194, 1.0714234245352212, 0.5097295422766899, 0.4545484686599866, -0.1385220582705006, -0.9406867015335049, -0.9325231519601092, -0.8046436875902969, 0.04478175155213739, 0.509216171437913, 0.9636521324771282, -0.6088444630252348, 0.9358139713973413, -0.6449965341271692, -0.5129181001327472, 2.203623659043539, -1.3241524537488845, 0.13942404317789167, -0.8116194022533506, 1.525355208237287, -0.5918283312833434, -0.08716515740659267, -0.39624681237396275, -1.0108892156764646, -1.7920409172725613, -1.7332763015517552, -0.9877081145998301, -0.2924181057913388, 1.4848272999903853, 0.6516852675131598, 1.2431851137141805, -0.33203823015093714, 0.5850838437287562, -0.4671541919621911, 0.8506560922357034, -0.7078156578815749, 0.018703016530330414, 0.5939655242514666, 1.2896037171860724, 0.8044050784844861, 0.5807159363603538, 0.371113008769455, 0.7344211470945536, -2.6039985802853884, 1.5185108616965306, -0.7092558163152833, 0.8229371703658827, -0.6980854296682115, 0.6563913110893846, 0.8906030323933847, 0.024025842558760196, 0.20747535056498834, 1.6872507257627887, -1.1305804155851862, 0.7049636058497236, 1.3696322999264803, -0.04089343341891721, 0.5206694918004857, -0.4394725134913905, 0.1486968202771047, 0.9537636840217356, 0.1536124120820217, 0.42702686189761546, -0.39987143404127085, -0.03365849582094057, 0.09256077412887131, 1.9866846759929724, -0.4497634476234201, -0.16072575850182744, -0.9576962927684443, -0.11994470834007902, 0.6459648955182222, -0.26993868801062426, 2.536196127150031, -2.4701103380525793, -0.19612456727554267, 0.246810504161253, -0.6050543564502726, 1.1517353098845535, -0.5766144906696877, -0.9914080121163956, 0.1742356169346477, 2.095081170518599, -0.2779443146722018, 0.8243795037186451, -1.339731497478102, 0.005255246685015873, 0.009506160138811136, -0.32771830667727364, -0.8393146485239775, -0.32704911949392623, -0.8212459554799278, 0.4354086203676651, -0.843605605765736, 0.24190576875599598, 0.007863223725290691, -0.46803311917072976, 1.1414482725012955, 0.44527798775302924, 0.9707936811253195, -2.465874603292482, -0.06023609660986334, -0.48563659752924554, 2.251814847068973, -1.4995781200141465, 1.533725152738438, -1.9619832492735594, 1.667823746126813, 1.0964507640111099, -1.0969625981916102, -1.2176079206744823, -0.3908587753315051, 0.7376402652965839, -0.35174755653663287, -0.6985197907070851, -0.05151289210190722, -0.1328163861501551, 0.15164432273804618, -0.6126652770288286, -0.4326320716273242, -0.8270543204290833, 0.5501835321213604, 0.855211577734013, 2.2014720852208916, 0.7067622978586768, -0.6720458892763383, -0.3114829560778453, -0.3773255012080106, 0.367421244706456, -1.0358321340033365, 0.7063395484879483, -1.2934840281168738, 0.8313969627699643, -0.5785488874023944, 1.5863699630980372, -0.7376617394139755, -0.931192335235859, -1.5135924315952412, 1.2522761902601014, -0.8756612340595112, -0.251846284580062, -0.17941145685584592, -1.1460982231496752, 1.3495465948295362, -0.7873984576031956, 0.6626110843633792, -0.09560679247100778, 0.8638431508950821, -0.7292226041719038, 0.20352481551999943, 1.577532678704123, 1.6777340205509177, -0.36326645841488436, -1.0519889794110746, -0.38214421349335526, -0.22182112852706748, 1.7503872559630131, -0.7545758222239708, -0.5737007924835097, -0.91717034215449, 1.1767554445346806, -1.1711166080243234, -2.0872780419557504, -0.5951903241935089, -0.5359596591615726, 1.1164195909879981, 0.7961455597027091, -0.607669034080094, 